{"name": "EnemyBehaviorNet", "description": "Neural network for enemy decision making in Suppression D\u00e9ta", "input_size": 24, "output_size": 8, "layers": [{"weights": [[0.028708, 0.219843, -0.109775, 0.118981, -0.175702, 0.292282, 0.398223, -0.210223, -0.145877, -0.140909, -0.156221, 0.625272, 0.282782, -0.134763, 0.072853, -0.061684, -0.029742, -0.474425, 0.293079, 0.002261, -0.142442, 0.229982, 0.236348, 0.18852], [0.060324, 0.233055, 0.149391, -0.348721, -0.04598, -0.027884, -0.206604, -0.170112, 0.227701, 0.118458, -0.054956, 0.348215, -0.257282, 0.006179, 0.108107, 0.191065, 0.052191, 0.257948, 0.108568, 0.067431, 0.322145, -0.101401, -0.414718, -0.095982], [0.158398, -0.073473, 0.628383, -0.053997, 0.275436, 0.27161, 0.54582, 0.11779, -0.136979, -0.082821, -0.003207, 0.029761, -0.116986, -0.349065, -0.126206, -0.157067, -0.136247, -0.197043, -0.171077, 0.114722, -0.169813, 0.256179, -0.13302, -0.138066], [-0.234269, -0.062513, -0.051978, -0.043261, 0.072878, -0.151075, -0.412306, -0.23184, -0.037952, -0.110294, -0.069974, 0.292042, -0.176721, -0.407437, 0.028607, -0.015718, -0.037333, 0.188581, -0.076891, -0.091935, -0.207918, 0.410276, -0.02263, 0.214024], [0.221012, -0.161302, -0.078942, -0.036236, 0.078615, -0.002965, 0.384046, 0.26958, -0.109673, -0.081789, 0.279959, 0.299884, -0.181795, -0.136835, -0.233788, -0.099625, -0.00979, -0.197941, 0.450278, 0.031416, 0.077457, 0.095129, -0.193114, 0.003838], [-0.050539, 0.360068, 0.134004, -0.265669, -0.072837, 0.014437, 0.153022, 0.060455, 0.033724, -0.035269, -0.058219, -0.05112, 0.223366, 0.148795, -0.238863, -0.376832, -0.133163, 0.008122, -0.428744, 0.006387, -0.173812, -0.053104, 0.114998, 0.385175], [0.338412, -0.222912, 0.002488, 0.43694, -0.228945, 0.197893, 0.087802, 0.405955, -0.463889, 0.427219, -0.167291, 0.026394, 0.009168, 0.04186, 0.009633, 0.250965, 0.109488, 0.176581, -0.174549, 0.135744, -0.200291, 0.273821, 0.064123, 0.200584], [0.175276, -0.305467, -0.067049, -0.21504, 0.273634, 0.081309, -0.105218, -0.124604, -0.023887, -0.478733, -0.186459, 0.300621, -0.058814, 0.111532, 0.166444, 0.071116, 0.110321, -0.163141, 0.090375, 0.202887, 0.214045, -0.274477, 0.372313, -0.057464], [0.270697, 0.250584, -0.071684, 0.003117, 0.179792, -0.150622, -0.146034, 0.284261, -0.107709, -0.196311, -0.189513, 0.031943, 0.120526, 0.446407, 0.345615, 0.022028, -0.092148, -0.220087, 0.120876, -0.089923, -0.050158, -0.262022, -0.299906, 0.021205], [0.036824, -0.268413, -0.16348, -0.01497, -0.207125, -0.256813, -0.022712, -0.306135, 0.255215, 0.160362, 0.036257, -0.008641, -0.202127, 0.067005, -0.251383, -0.300306, 0.372081, -0.387732, 0.216134, 0.191766, 0.09624, 0.214406, 0.133644, 0.274062], [0.418716, 0.09689, -0.059085, -0.096234, 0.083636, -0.337182, 0.071243, 0.091503, -0.19699, -0.085171, -0.251558, 0.009785, -0.104554, -0.251483, -0.221841, -0.380783, 0.286264, -0.002705, -0.189815, 0.303872, 0.258386, 0.027743, -0.156199, -0.04317], [0.229703, -0.182028, -0.123633, -0.027787, 0.088738, -0.017659, 0.133651, -0.316698, 0.004153, -0.082197, -0.349288, -0.52144, 0.08325, -0.310604, 0.133084, -0.498209, 0.055953, 0.2463, 0.088615, -0.016062, 0.054753, -0.041702, 0.316736, 0.085731], [-0.177578, 0.1777, 0.028855, 0.032132, -0.11041, -0.337987, 0.127032, -0.102015, 0.245171, -0.029952, -0.139298, -0.211659, -0.052972, -0.142627, -0.089837, -0.169445, 0.045143, 0.320225, -0.120939, -0.242432, -0.135795, 0.12816, -0.144786, -0.16803], [0.189569, -0.10028, 0.018224, -0.151934, -0.267257, -0.168875, 0.267984, -0.083011, -0.010175, -0.014768, 0.082805, 0.130285, -0.010806, -0.192452, -0.200915, -0.37496, 0.456277, 0.037971, -0.014665, -0.131595, -0.111198, -0.185217, 0.035102, 0.10646], [0.140875, -0.489927, -0.071678, -0.264664, -0.22326, -0.201979, -0.06732, -0.217748, 0.033381, 0.181447, 0.226679, 0.607381, -0.253904, -0.221364, 0.016602, -0.198633, 0.276964, -0.250386, 0.156688, 0.359814, 0.168932, 0.083559, -0.293084, -0.178045], [0.03873, 0.490048, 0.040076, 0.106074, -0.031727, -0.029718, -0.226153, 0.390278, 0.314102, -0.198632, -0.075864, -0.239243, 0.047939, 0.449911, 0.049122, 0.002835, 0.00937, -0.286378, 0.052309, 0.011027, -0.188212, -0.10532, 0.161514, -0.175165], [-0.20445, 0.172127, 0.20897, -0.000286, 0.454958, -0.108253, 0.053745, -0.059908, -0.014785, -0.203085, 0.057616, -0.133012, -0.045232, -0.073753, 0.190152, 0.329616, -0.077327, 0.03642, -0.049855, 0.037379, 0.254569, -0.09937, -0.10004, -0.261973], [0.010716, 0.220586, -0.171506, 0.173305, -0.357537, -0.23535, 0.001806, 0.318546, -0.065465, -0.036847, 0.348047, -0.087117, -0.464025, 0.039987, 0.065511, 0.215764, -0.293343, 0.04877, -0.267802, -0.176905, 0.250277, -0.286745, 0.043, 0.147754], [-0.045573, 0.077017, 0.000922, 0.173446, -0.109922, 0.136823, 0.155382, -0.174246, -0.096404, -0.11693, -0.301317, 0.178133, 0.063357, -0.164068, 0.093861, -0.181868, 0.165253, -0.076396, -0.113453, -0.292649, -0.159234, 0.139861, -0.127268, 0.112212], [-0.089823, -0.03328, -0.345742, -0.271258, 0.237177, -0.024027, 0.126393, -0.49614, 0.124848, -0.054652, -0.038682, -0.098354, 0.121335, -0.10978, 0.37033, 0.156338, -0.009794, 0.148617, 0.452124, -0.039153, -0.066483, -0.283013, 0.4103, -0.111275], [-0.06858, -0.195642, -0.061178, -0.112387, 0.047698, 0.173196, -0.246357, 0.489941, 0.06136, -0.246441, 0.193208, -0.000326, -0.141637, 0.220664, -0.348932, 0.109204, -0.118625, -0.032414, -0.002029, -0.221355, 0.002695, -0.344134, 0.158239, -0.067544], [0.192498, -0.14703, -0.225063, -0.100689, -0.342218, -0.332728, -0.157281, -0.004979, -0.373683, 0.055838, 0.125184, 0.080836, 0.111852, -0.17358, 0.131451, 0.244375, 0.037454, 0.250412, -0.209188, -0.06754, -0.119671, -0.293556, 0.123341, -0.031987], [0.207599, -0.025497, 0.057682, -0.11911, -0.026152, 0.715484, -0.209076, -0.39758, -0.124798, -0.090828, 0.222042, 0.114335, -0.06059, 0.061461, -0.153971, 0.076145, -0.157524, -0.197209, 0.189778, -0.345573, 0.253172, -0.064003, -0.132247, -0.137499], [0.099572, -0.181037, 0.055885, -0.197729, -0.045834, -0.221549, 0.149882, 0.039116, -0.084509, 0.161495, 0.204622, 0.169553, 0.05221, -0.300934, -0.080429, 0.073231, 0.003251, 0.28955, 0.016347, -0.095557, -0.083526, -0.170494, -0.101006, -0.236975], [-0.225585, 0.165207, 0.097964, 0.207541, -0.304386, -0.345151, -0.04439, 0.072175, 0.288311, -0.009795, 0.034871, -0.082913, -0.066483, -0.126491, 0.401354, 0.459511, 0.117342, 0.232536, -0.233183, -0.091504, 0.292018, 0.030389, -0.442947, 0.42394], [-0.127948, -0.140842, 0.010238, -0.581059, 0.012105, 0.031895, -0.009695, 0.10367, 0.241798, -0.116576, 0.098916, 0.251634, -0.002791, 0.464932, 0.297434, 0.193375, -0.003873, -0.25141, -0.523138, 0.349279, -0.037294, 0.017325, 0.055935, 0.019222], [0.230246, 0.27948, -0.094966, 0.014536, -0.133092, -0.11505, -0.177011, 0.000787, -0.165278, -0.317123, -0.213659, 0.431606, -0.180561, 0.218365, 0.028457, -0.087794, -0.010278, -0.087375, 0.083523, -0.378735, -0.022402, -0.242587, -0.021986, 0.015344], [-0.11114, -0.378463, 0.122359, -0.059472, 0.337833, 0.174088, 0.369964, -0.3479, -0.063109, -0.181348, 0.223675, -0.003692, -0.125932, 0.250511, 0.047681, -0.457515, 0.126233, 0.364294, -0.233517, -0.160785, 0.035903, 0.0794, 0.292083, 0.342516], [-0.103687, 0.167614, -0.414314, 0.226355, -0.141078, -0.012299, 0.084674, 0.091576, 0.055922, -0.060116, 0.15932, -0.024464, 0.082518, -0.226788, -0.159758, -0.459399, -0.322524, -0.122084, 0.042356, 0.01771, 0.241776, -0.307722, 0.405955, -0.07401], [0.082338, 0.358961, -0.169883, -0.212229, -0.020221, 0.154983, 0.300049, 0.06341, -0.375874, 0.171744, 0.044516, -0.068201, -0.027606, -0.284266, -0.215107, -0.351749, 0.078488, -0.246535, -0.137426, -0.43174, -0.26887, -0.05057, 0.100351, 0.032767], [-0.088079, 0.009875, 0.063321, 0.046751, -0.202231, 0.102858, 0.372626, 0.003128, -0.057129, -0.202052, 0.052765, -0.422086, -0.27181, -0.295839, -0.538816, -0.027491, 0.096183, -0.136325, -0.409557, 0.162903, -0.036071, 0.166051, 0.034847, 0.072722], [0.006566, -0.208992, 0.06688, -0.25126, 0.162358, -0.139573, -0.235601, -0.346319, -0.147234, -0.119499, -0.495457, -0.125694, -0.341924, 0.0112, 0.031156, 0.448999, 0.092865, -0.375229, -0.438406, -0.000255, -0.255551, -0.005296, -0.22583, 0.148145], [-0.154252, -0.080155, 0.046869, -0.121148, -0.607176, 0.013438, 0.078275, 0.065706, 0.073781, -0.016264, 0.091692, 0.30967, -0.019927, 0.365338, -0.081601, -0.354059, -0.099623, 0.25677, -0.138314, 0.143157, 0.178621, 0.179696, -0.029879, 0.117745], [-0.126569, -0.336995, 0.072264, -0.130755, -0.173336, 0.223554, -0.321946, 0.215399, 0.198945, 0.035318, -0.172839, -0.215471, -0.224925, 0.109614, -0.12345, -0.173353, -0.278575, 0.325301, -0.373121, 0.081474, 0.911088, 0.108388, -0.091592, -0.168591], [-0.097031, 0.042107, 0.001534, 0.08869, 0.040885, 0.341886, -0.139192, -0.278993, -0.163989, -0.104948, 0.0169, -0.442382, 0.106355, 0.275322, -0.343897, 0.217058, 0.004294, 0.161719, 0.112881, 0.30548, 0.205483, -0.109873, -0.246962, -0.12289], [0.133785, -0.118933, -0.293462, -0.53036, -0.033092, -0.371686, 0.041721, 0.084521, 0.048886, -0.08471, 0.314019, 0.165023, -0.102617, -0.321751, -0.280396, -0.139058, -0.020431, -0.03964, 0.115197, -0.081564, 0.190378, 0.016307, -0.188141, 0.106568], [0.056485, -0.025808, 0.103041, 0.426764, 0.000938, 0.106085, -0.508722, -0.040119, -0.29119, 0.216488, -0.092757, -0.100939, 0.036825, -0.086863, -0.083681, -0.173969, -0.035629, 0.252862, 0.022069, -0.19709, -0.108327, 0.386546, 0.314574, 0.184553], [0.312464, 0.315813, 0.011179, -0.187235, 0.196012, 0.21082, 0.042408, -0.145938, 0.220515, 0.176208, -0.06355, -0.08544, 0.233256, 0.445721, 0.13842, 0.044082, 0.319794, -0.243167, -0.016323, -0.0409, 0.20286, 0.044896, 0.117843, 0.181982], [0.230627, 0.227027, -0.058636, 0.209484, -0.000453, -0.123797, 0.207723, -0.043266, 0.009546, 0.011014, -0.249806, -0.32294, 0.046134, -0.176157, -0.207507, 0.039458, 0.131079, 0.077413, -0.032019, -0.19045, -0.03225, 0.208957, -0.048918, 0.191006], [-0.066639, -0.176218, -0.350122, 0.007214, -0.034617, 0.082449, -0.145693, -0.004531, -0.03749, -0.173536, 0.034112, 0.088379, 0.193874, 0.028164, 0.092401, -0.179144, 0.116035, 0.095159, -3.7e-05, -0.091323, -0.254531, 0.149523, -0.028173, 0.002312], [0.368748, 0.084289, 0.420984, -0.120457, -0.266714, -0.046762, -0.140077, 0.016481, 0.015027, -0.010916, 0.016045, 0.199587, 0.211533, -0.059715, 0.102729, 0.097023, -0.21039, -0.065799, 0.081917, -0.160643, -0.086198, -0.112582, 0.147639, -0.045451], [-0.070177, -0.335084, 0.178914, -0.224335, -0.204435, -0.02796, -0.016587, 0.354754, 0.093558, 0.18014, 0.344841, 0.04235, -0.066456, 0.005304, 0.102571, 0.043482, -0.000827, 0.028001, 0.034506, 0.0023, -0.144312, 0.19479, -0.137451, -0.020276], [0.071209, 0.159711, 0.058428, 0.422306, 0.14146, -0.456083, 0.252421, 0.214398, 0.091372, -0.011366, 0.034502, -0.187949, 0.400869, 0.019602, -0.253915, -0.326504, -0.102498, 0.275396, 0.20446, 0.244239, 0.159407, -0.084857, -0.028155, -0.23047], [-0.139746, -0.141857, -0.197897, -0.327419, -0.121042, -0.097528, 0.057156, 0.329583, -0.142591, -0.326639, 0.090773, 0.213817, 0.012092, -0.007899, 0.216498, 0.588533, -0.127718, 0.094327, 0.052205, -0.090233, -0.014586, 0.529764, 0.189739, 0.350797], [-0.130247, -0.015242, -0.095542, 0.119642, -0.200871, 0.350105, -0.098328, -0.050658, -0.061531, -0.135449, 0.237781, 0.136413, 0.249442, -0.005788, -0.369659, 0.050335, 0.084563, 0.065886, 0.22171, 0.257563, 0.272513, 0.005389, -0.134611, -0.197453], [0.215198, 0.22199, -0.019423, -0.239441, -0.00354, -0.119335, 0.068405, 0.055572, -0.025099, 0.072925, -0.164646, -0.139004, 0.297731, -0.088132, -0.197285, -0.326567, -0.39581, 0.196512, -0.042476, 0.137922, -0.382991, -0.077185, 0.037946, -0.053386], [0.031865, -0.074938, -0.352872, 0.042773, -0.006249, 0.055693, 0.177803, -0.07711, -0.014612, 0.029932, 0.422298, 0.061824, -0.097577, 0.099785, 0.007654, 0.100081, 0.208818, 0.221883, 0.490778, 0.35506, -0.193172, 0.155104, 0.090763, -0.088259], [0.144548, -0.198256, -0.272443, -0.0242, -0.109684, 0.016515, 0.296544, -0.098615, 0.019579, 0.0257, -0.137904, 0.033411, 0.118381, -0.045422, -0.229089, -0.049394, 0.023652, -0.120843, -0.047389, 0.215767, -0.17535, -0.135227, -0.095143, 0.360851], [0.11345, -0.345407, 0.187897, 0.171348, 0.241291, -0.10975, -0.064234, 0.324581, 0.232454, 0.421747, 0.122348, -0.238496, 0.010294, -0.02177, 0.059501, -0.066772, -0.126367, 0.070094, 0.05029, -0.055877, -0.030447, 0.031331, 0.124223, -0.227392], [0.021913, -0.031067, -0.056913, 0.027745, -0.163785, -0.040661, -0.107364, -0.075846, -0.39009, 0.22169, 0.353969, -0.114955, -0.140002, 0.191212, 0.076798, -0.268494, 0.053421, -0.118948, 0.053702, -0.120649, -0.047979, -0.231593, 0.096639, -0.113718], [-0.016498, 0.255642, -0.025276, 0.332912, -0.136083, -0.018095, 0.095944, 0.134907, 0.019142, 0.031382, 0.233111, -0.260411, -0.01789, -0.029737, -0.088736, 0.228961, -0.036713, -0.24132, -0.105902, -0.06481, -0.254122, -0.187929, -0.241101, 0.273178], [0.19639, 0.248267, 0.021981, -0.287352, 0.104905, 0.315195, 0.159014, 0.171463, -0.075113, 0.122351, -0.050007, 0.012036, 0.08908, 0.382642, -0.041857, -0.127396, -0.062481, 0.262027, -0.175527, -0.168356, -0.093522, -0.197913, 0.274914, -0.065813], [0.08919, 0.050217, 0.169139, 0.03591, 0.135983, -0.07276, 0.000701, -0.049992, 0.219892, -0.059078, 0.143124, 0.125954, -0.291611, 0.136871, -0.09445, -0.02913, -0.081519, 0.118236, -0.109385, -0.249711, 0.340327, -0.047233, 0.073577, 0.113894], [-0.250178, 0.255483, -0.086272, 0.260684, 0.061042, -0.069717, -0.249579, -0.251255, -0.124719, 0.208696, -0.039892, -0.329329, -0.07133, -0.308793, 0.01554, -0.191679, -0.096925, 0.071968, 0.038636, 0.005591, 0.066091, -0.163945, -0.048103, 0.163231], [-0.385244, -0.000822, 0.004919, 0.187914, -0.103005, -0.01437, 0.092495, 0.074655, 0.087206, -0.43408, -0.058943, 0.260581, -0.039488, 0.143167, 0.113522, 0.058914, -0.152117, -0.040358, 0.029328, 0.428324, -0.01027, -0.03505, -0.407172, -0.068406], [-0.024675, -0.178628, 0.048501, 0.175125, -0.190534, -0.158142, -0.032163, 0.07157, 0.417671, -0.095884, 0.170151, -0.004703, 0.257891, 0.224294, 0.32239, 0.312388, 0.042986, 0.14529, 0.011406, -0.119009, 0.107263, -0.035747, -0.041581, 0.027474], [0.141203, -0.319104, 0.102425, 0.146135, -0.250378, -0.235528, 0.054433, -0.034257, -0.172051, -0.219826, -0.352594, 0.240174, -0.008116, 0.229087, 0.190014, -0.009099, 0.04647, 0.16473, 0.047376, 0.257167, -0.21999, 0.183505, 0.083678, -0.085534], [-0.22122, 0.032288, -0.062383, 0.533125, 0.242439, -0.200727, -0.24821, -0.180444, 0.132369, -0.224459, -0.081236, -0.167028, -0.195284, -0.249122, -0.164407, 0.233903, 0.066553, -0.040965, 0.111565, -0.044488, -0.016242, -0.290412, -0.163501, 0.052868], [0.124692, -0.247563, 0.026961, 0.062947, -0.147333, -0.036659, 0.569282, 0.280631, 0.315941, -0.007919, 0.039777, -0.281777, -0.190762, 0.422456, 0.109305, 0.001333, 0.118484, -0.010946, 0.014246, 0.05118, -0.019838, -0.197074, -0.073089, -0.046974], [-0.035486, -0.021118, 0.028487, -0.012817, 0.141886, 0.37473, 0.337822, -0.071601, 0.103778, 0.02663, 0.171217, -0.1399, -0.312603, -0.233994, 0.075953, -0.093299, -0.045047, -0.164758, 0.045166, 0.203839, 0.028308, -0.150878, 0.317492, 0.001395], [-0.093761, -0.095874, -0.311931, 0.110958, -0.188809, -0.45435, 0.415456, 0.269523, 0.137102, -0.291181, -0.155783, 0.140409, 0.559597, -0.231276, -0.124066, 0.14934, -0.001163, 0.138767, -0.182975, 0.230318, -0.247789, -0.253375, 0.094928, 0.155454], [0.263021, 0.120314, 0.012426, 0.107263, -0.297423, -0.03826, 0.018251, -0.145911, 0.084959, -0.132192, -0.194322, 0.137728, 0.142793, -0.119652, -0.043217, 0.400325, 0.236361, -0.059689, 0.061293, -0.112871, 0.146765, -0.131668, -0.186462, -0.236761], [-0.077591, 0.080118, -0.108514, -0.152719, 0.017654, 0.016966, -0.11689, -0.39471, 0.038188, 0.127747, -0.139835, 0.303193, -0.132276, 0.045994, 0.343295, 0.103385, -0.200035, 0.247103, -0.112885, -0.079239, -0.340076, -0.203925, 0.131697, -0.134649], [0.130143, -0.342108, -0.260432, -0.274327, 0.27325, -0.096084, 0.465834, 0.300163, 0.136801, -0.016106, -0.135552, 0.101601, 0.036633, -0.030181, -0.029761, 0.14216, 0.0353, 0.057444, -0.08959, 0.299713, -0.132477, 0.224598, 0.097511, 0.432945]], "biases": [-0.061428, -0.029285, -0.003554, -0.188786, 0.073124, 0.069487, -0.151643, 0.105942, 0.006734, 0.009859, 0.026625, -0.184841, 0.101594, -0.141426, -0.011483, 0.033569, 0.008524, -0.105618, -0.000118, -0.048911, 0.082035, 0.095265, -0.062026, 0.089017, -0.010662, -0.070918, 0.190153, 0.002999, -0.064805, -0.162785, -0.012507, 0.147411, -0.013891, 0.124908, -0.020292, 0.086887, 0.252711, 0.165083, 0.000284, 0.150422, -0.210771, 0.194469, -0.122269, 0.139641, -0.202575, -0.065474, -0.024739, -0.047504, -0.029012, -0.029679, -0.08604, 0.080889, 0.096137, 0.040006, 0.21589, -0.06751, -0.114625, -0.14343, 0.093204, 0.120981, -0.15761, 0.089593, -0.114808, 0.150764], "activation": "sigmoid"}, {"weights": [[0.048265, 0.187329, -0.076472, -0.105157, -0.053687, 0.159879, 0.00348, 0.063264, 0.138445, 0.122075, -0.011799, 0.020247, 0.141716, -0.049225, 0.064881, -0.066642, -0.22208, -0.003111, -0.073282, -0.076265, -0.047737, 0.207433, -0.044407, -0.212994, 0.019864, 0.188567, 0.242282, -0.085776, -0.033467, 0.05159, 0.072601, 0.113086, 0.204266, -0.000128, 0.197921, -0.05089, 0.093071, 0.093145, 0.127927, -0.089508, -0.182746, 0.18759, -0.151358, -0.022011, -0.079978, 0.093579, -0.014164, -0.045222, -0.057664, 0.248524, 0.066975, 0.00403, 0.092407, 0.084366, 0.204122, -0.042583, -0.037871, -0.114525, 0.052735, 0.305784, -0.116838, -0.153543, 0.204602, 0.078244], [0.050765, -0.055991, -0.042383, -0.050788, 0.101304, -0.088997, 0.019673, -0.040965, 0.29907, -0.124725, 0.125365, -0.059789, 0.135729, -0.138941, -0.03887, 0.149879, -0.195044, 0.033204, 0.061177, -0.171691, 0.052172, -0.196103, -0.104468, -0.140124, -0.034205, -0.05978, 0.089696, 0.028926, -0.133838, -0.05804, 0.253121, 0.203708, 0.003569, -0.097328, -0.221767, -0.169549, 0.00263, 0.088558, -0.097867, -0.117976, -0.017515, -0.045108, 0.157904, -0.218129, 0.028956, -0.028816, -0.152004, -0.071809, 0.028551, 0.059858, 0.047543, 0.076174, 0.047589, 0.070409, 0.01932, -0.027218, -0.06047, -0.016701, 0.050756, 0.184198, 0.197921, -0.05215, -0.021632, 0.070827], [-0.069367, 0.009891, -0.111892, -0.050029, 0.14888, -0.057241, 0.090206, 0.084293, -0.1302, -0.114766, -0.036229, -0.199128, -0.034267, -0.028212, -0.09383, 0.014455, -0.007099, 0.094107, 0.189703, 0.02857, 0.058695, -0.019014, 0.169738, 0.14303, -0.02846, -0.037375, -0.159753, 0.023669, -0.047607, 0.095179, -0.217607, 0.05731, -0.150263, 0.015854, -0.19165, 0.196423, 0.074098, -0.115949, -0.152541, 0.094007, -0.1256, 0.148689, -0.007578, 0.251678, -0.106273, -0.121567, 0.070413, -0.019636, 0.150419, -0.098364, 0.191486, -0.031074, 0.003613, 0.038956, 0.067305, -0.24815, -0.171172, 0.122323, 0.047602, -0.037087, 0.111045, -0.119818, 0.076531, -0.061135], [0.046144, 0.041963, -0.174044, -0.051631, -0.06609, 0.272567, -0.102359, -0.115751, -0.029784, 0.022738, 0.207627, -0.044662, -0.052761, -0.295526, 0.007182, -0.065651, -0.230918, -0.167611, 0.012593, -0.027631, 0.027688, -0.017166, -0.278365, 0.141577, -0.19487, 0.119207, 0.05524, 0.017713, -0.068082, 0.119458, -0.087793, -0.163415, -0.070636, -0.031144, 0.177722, -0.025336, -0.059048, -0.069945, 0.063729, 0.038499, -0.01738, -0.113511, -0.299567, -0.073566, 0.08361, -0.104158, -0.198791, -0.040409, 0.139028, -0.229234, 0.020255, 0.188321, -0.014931, -0.051435, -0.081919, 0.015044, -0.176255, -0.019509, 0.120035, 0.188992, 0.079573, 0.127694, 0.186885, 0.311137], [-0.207283, -0.020639, 0.006562, -0.030992, 0.098699, -0.00557, -0.179158, -0.2233, -0.123179, -0.026535, -0.030345, 0.071003, -0.236856, -0.114122, 0.012411, 0.246001, 0.076728, -0.031802, 0.027176, -0.214294, 0.203775, 0.091472, 0.043356, -0.058112, 0.075304, 0.02213, 0.078663, 0.122007, -0.013664, 0.104749, -0.065922, 0.028643, -0.04688, 0.016527, 0.067863, -0.075865, -0.105671, -0.104614, 0.075458, -0.03928, 0.043278, 0.006127, -0.249549, 0.127252, -0.021, -0.079488, 0.026185, -0.120113, 0.006961, 0.268117, -0.137318, 0.12598, 0.065636, 0.093166, 0.254344, -0.003072, 0.088449, -0.074288, 0.131209, -0.011257, 0.24005, 0.078382, 0.038173, 0.023741], [-0.003213, -0.156973, 0.014173, 0.145089, -0.05328, 0.092696, 0.077109, 0.067355, -0.017822, 0.231007, -0.090302, 0.212031, 0.020556, -0.014045, -0.017421, -0.009173, -0.140108, -0.020847, -0.066131, -0.11407, 0.026093, 0.051541, -0.068371, -0.087332, -0.093662, 0.087817, 0.122897, -0.031124, 0.133285, -0.023025, 0.058451, -0.031809, -0.011163, -0.120278, 0.110397, 0.001252, -0.032044, 0.00968, -0.003662, 0.010022, -0.056259, -0.131498, -0.063176, 0.100079, -0.185982, -0.014868, -0.271958, 0.118385, -0.006741, -0.003563, -0.182288, 0.055083, 0.063962, -0.092054, 0.064045, 0.124466, -0.150984, -0.058497, 0.017651, -0.138838, 0.036651, 0.048391, -0.09166, 0.156019], [0.057805, -0.09213, -0.215701, 0.105601, -0.056696, 0.05435, 0.168965, -0.175329, -0.111144, 0.0127, 0.194284, 0.152374, 0.164897, -0.041217, 0.034048, 0.397635, 0.0694, -0.325717, 0.005828, 0.139196, 0.052528, 0.1975, -0.034164, -0.017533, -0.01668, -0.102121, 0.008712, -0.075257, -0.217552, 0.032148, 0.097765, 0.07105, -0.13706, -0.044173, -0.147528, 0.131277, -0.164977, 0.112145, 0.355565, 0.049903, -0.118038, 0.042426, 0.115959, -0.38099, 0.025998, 0.098503, -0.216549, -0.088256, -0.313289, -0.022936, 0.08118, -0.317783, 0.037757, -0.114775, -0.217583, -0.045101, 0.116606, -0.165138, 0.074094, 0.16755, -0.010247, -0.122906, 0.097253, 0.150347], [0.013018, -0.145579, 0.130122, 0.032997, -0.043192, -0.157235, -0.131381, 0.210982, 0.06794, -0.00127, -0.12639, -0.028706, 0.079022, -0.026284, 0.291266, 0.202681, 0.033862, 0.105743, -0.074931, 0.023794, 0.050207, 0.040686, 0.204481, -0.139748, -0.144039, -0.002855, -0.106351, -0.114777, 0.218485, -0.107683, -0.16269, -0.26155, 0.175901, 0.025142, -0.044811, 0.019222, 0.150129, -0.050028, 0.151069, -0.287689, -0.03744, -0.125988, -0.064513, 0.026116, -0.075849, 0.048491, 0.192953, 0.04672, 0.015978, 0.109761, -0.044049, 0.148478, -0.120558, 0.05433, 0.195733, -0.107758, -0.172712, 0.221789, 0.168098, 0.023284, -0.169973, -0.14158, -0.074378, 0.015657], [0.036706, 0.026715, -0.262241, 0.066374, -0.025365, 0.164811, -0.057447, -0.100583, -0.110625, -0.041428, -0.03259, -0.047037, -0.184798, -0.156488, 0.034439, 0.045737, -0.000193, -0.031676, -0.003914, -0.025561, -0.091357, -0.167445, -0.080697, 0.167544, -0.134718, -0.231078, -0.014434, -0.025717, 0.09394, 0.014129, 0.048349, -0.16301, 0.071188, 0.179569, 0.065834, -0.010235, -0.040226, -0.038206, -0.043434, -0.200107, 0.196209, -0.048533, -0.143292, 0.09197, -0.036182, 0.136855, 0.104023, 0.019893, -0.06025, 0.056629, 0.095094, -0.087383, -0.032918, -0.040548, -0.019564, -0.070892, -0.009887, 0.015484, -0.090584, 0.05325, 0.157509, 0.131431, 0.098718, 0.159523], [-0.109221, 0.023555, 0.009392, -0.184498, 0.01481, -0.024088, 0.073031, 0.074915, 0.006733, 0.097446, -0.139106, -0.069965, -0.009059, -0.15163, 0.054856, -0.17723, 0.262052, -0.230941, 0.17598, 0.199867, 0.025104, 0.206039, 0.116538, -0.167828, -0.241097, 0.092399, 0.05166, -0.011733, 0.060788, -0.006601, 0.068289, -0.037608, -0.01749, 0.079401, 0.021867, -0.187666, 0.128196, -0.170689, 0.084347, 0.016142, 0.075379, 0.111264, -0.124048, 0.185882, -0.030809, -0.183299, -0.190436, 0.02278, -0.095636, 0.043512, 0.096734, 0.05021, -0.011683, 0.106187, 0.050072, -0.152367, 0.074594, -0.084718, 0.116215, 0.013854, -0.166532, -0.02302, 0.061761, -0.205306], [-0.001518, 0.196629, 0.004576, -0.147116, 0.0517, 0.004412, -0.075204, 0.060475, 0.023098, -0.16755, -0.052559, -0.110539, 0.054163, 0.142123, 0.035063, 0.16659, -0.085999, -0.023867, -0.046931, 0.220949, 0.042284, 0.067527, -0.107891, 0.038512, -0.074337, -0.031679, 0.231982, 0.089871, -0.292723, 0.050113, 0.109299, 0.169145, -0.081192, -0.067056, 0.16959, -0.176489, -0.060648, -0.003545, -0.020363, -0.125706, 0.040838, 0.207756, 0.116193, 0.078526, 0.048735, -0.093443, -0.064679, 0.073236, 0.123709, -0.157553, -0.137253, -0.041708, -0.243853, 0.239172, 0.089749, 0.035188, -0.057497, -0.010872, 0.007152, -0.003393, -0.142346, 0.221887, -0.020444, -0.268231], [0.102178, -0.262976, 0.205761, -0.030109, -0.05518, -0.044837, -0.046241, 0.015856, -0.114872, 0.084123, 0.165472, 0.091069, -0.090208, -0.143905, 0.002381, -0.003688, -0.093992, -0.15124, -0.086489, -0.036287, 0.099586, 0.056, -0.025106, -0.017149, -0.069976, -0.05953, 0.239789, -0.030616, 0.131516, -0.07634, -0.132639, -0.064131, 0.027245, 0.081808, -0.052348, 0.151583, 0.009277, -0.002378, 0.02126, 0.027966, 0.132213, 0.089719, -0.075019, 0.043705, 0.0561, 0.154808, -0.020098, 0.090291, 0.23736, 0.02584, -0.151343, 0.033064, -0.030953, -0.069073, 0.209373, 0.13767, 0.079842, 0.032849, 0.017093, -0.089171, 0.334087, 0.043636, -0.122897, 0.221276], [-0.215161, 0.030576, 0.148364, -0.254846, 0.207036, -0.176054, -0.02911, -0.180892, 0.162767, 0.281738, 0.099622, -0.210213, 0.031698, 0.052777, -0.304144, -0.074299, -0.01375, 0.073115, -0.042073, 0.177142, 0.015326, -0.358694, 0.090742, 0.100872, 0.113379, -0.064073, 0.195369, -0.106543, 0.144847, 0.01039, 0.032845, -0.010347, 0.233861, 0.096491, -0.259039, 0.087407, 0.068987, 0.105194, 0.123542, -0.04552, -0.154256, 0.099484, -0.10675, -0.037167, -0.229557, -0.236488, -0.09291, -0.060336, -0.011684, 0.065625, 0.00531, -0.062786, -0.043467, -0.045356, -0.022526, 0.024707, 0.048912, 0.258891, -0.15165, 0.00623, 0.162491, -0.240842, 0.136462, -0.088999], [0.25557, -0.137431, 0.097561, 0.00069, 0.137783, -0.100123, 0.208013, -0.085515, -0.009027, -0.12796, -0.050293, -0.028416, 0.033388, 0.064111, -0.044136, 0.003785, -0.177756, 0.012216, -0.082121, -0.160436, -0.166757, -0.112173, 0.108993, 0.194752, 0.118416, 0.175255, -0.176964, -0.102307, -0.112863, 0.042265, -0.037019, 0.171801, 0.124091, 0.043876, -0.055164, -0.113588, 0.01384, -0.197258, -0.077911, 0.165083, -0.129994, -0.062843, -0.020374, -0.127206, 0.093811, 0.071854, 0.054881, -0.183391, 0.058372, -0.168174, 0.0276, 0.245979, 0.040991, 0.146575, -0.032168, 0.120505, 0.027807, 0.025298, 0.13284, 0.113956, -0.166972, 0.216099, 0.208767, 0.159262], [-0.117087, 0.238658, 0.193601, 0.029444, 0.10204, 0.00577, -0.339352, 0.078863, -0.003684, 0.226417, 0.166873, 0.179308, 0.12275, -0.047725, 0.214507, 0.034074, 0.089635, -0.109995, -0.209555, 0.311841, 0.080273, 0.107562, 0.019139, 0.155322, -0.005583, 0.068161, -0.000756, 0.224507, 0.029649, -0.14394, -0.148794, -0.112739, -0.049105, 0.065172, -0.068113, -0.033891, -0.263738, -0.217355, -0.118604, -0.074626, -0.066569, -0.012502, -0.16412, -0.040377, 0.005957, -0.035036, 0.066332, -0.055569, 0.089325, -0.137314, 0.093793, -0.040082, 0.072174, 0.027408, 0.008414, 0.051774, 0.025457, -0.178776, -0.178982, 0.321352, 0.109814, 0.040786, 0.089736, 0.315333], [-0.027059, -0.074367, 0.010371, -0.068765, 0.125352, 0.076481, 0.026053, 0.018333, -0.018599, -0.076827, 0.10078, -0.189712, -0.0103, 0.123115, -0.040496, -0.141944, -0.100025, -0.092461, 0.146398, 0.027913, 0.063608, 0.027218, -0.025771, 0.117196, -0.158107, 0.101725, 0.162257, 0.226832, 0.301673, -0.02797, -0.165685, -0.109669, -0.106029, 0.071636, -0.096696, -0.059313, -0.136876, 0.074998, 0.099583, -0.105095, -0.028055, 0.091697, -0.022575, 0.030845, -0.008841, 0.052256, 0.045372, -0.085346, 0.034997, 0.10821, 0.108183, -0.109718, 0.076278, 0.036219, -0.194253, -0.036307, 0.093556, 0.038821, 0.023348, 0.010923, 0.136028, 0.082108, -0.036959, 0.000374], [-0.087841, -0.13465, 0.07167, 0.130874, -0.104932, -0.018153, -0.023298, -0.133336, 0.214511, -0.092529, 0.087344, -0.06699, -0.151351, 0.185502, -0.145931, -0.001861, 0.193918, 0.321693, -0.14782, -0.048554, 0.140014, 0.089825, 0.094038, -0.06742, -0.110468, -0.044986, 0.068518, -0.057725, 0.050402, -0.171515, 0.105065, -0.106395, -0.004537, 0.019077, 0.090691, 0.072749, 0.248104, 0.09453, 0.175185, -0.072212, 0.125241, -0.071339, -0.073639, -0.177537, -0.077281, 0.322084, 0.042048, 0.003378, -0.01767, -0.035722, -0.271106, -0.076251, 0.164016, -0.016272, -0.020319, -0.001807, -0.03124, -0.085336, -0.049101, 0.208588, -0.098802, -0.183277, 0.053944, -0.095655], [0.095958, -0.059876, 0.079475, -0.030606, 0.021882, -0.042903, -0.125365, -0.130156, -0.109106, -0.150428, -0.17555, 0.088758, 0.047481, 0.026271, -0.074384, -0.136453, -0.029811, -0.169525, 0.126467, -0.018033, 0.086088, 0.030498, 0.050841, -0.159768, 0.045275, 0.025459, 0.084779, -0.07699, -0.012968, 0.146443, -0.163812, -0.162223, 0.110654, -0.045952, 0.048869, 0.057288, 0.105672, -0.083484, 0.059836, -0.102224, 0.047508, -0.042572, -0.063375, 0.131753, -0.056769, -0.226526, -0.195689, 0.019793, 0.241518, 0.034714, 0.016173, -0.055687, 0.064859, 0.07403, -0.015371, -0.031213, 0.2046, -0.100932, 0.143415, 0.130581, 0.069059, 0.101158, -0.012811, -0.179333], [-0.11294, -0.080873, 0.081726, 0.14802, -0.042091, -0.203833, 0.009232, -0.056102, -0.077605, 0.189248, 0.121598, 0.260301, -0.210882, 0.225616, -0.040576, -0.027128, -0.050885, -0.034129, -0.079122, -0.101714, -0.251706, 0.178129, -0.017832, 0.035264, 0.051519, 0.120599, -0.024367, 0.12915, -0.202569, -0.225561, -0.070154, -0.119905, -0.092316, 0.108863, 0.051057, -0.058335, -0.087229, -0.045258, -0.114216, -2e-05, -0.098905, -0.148948, -0.137825, -0.235204, -0.000475, 0.064824, 0.190116, -0.027944, 0.103868, -0.19845, 0.042424, -0.068547, -0.261749, -0.033836, -0.019912, -0.0675, -0.286992, -0.19699, 0.105253, 0.122706, 0.107279, 0.077747, 0.069523, 0.085827], [0.107815, -0.205424, -0.131584, 0.221619, 0.002246, -0.232363, -0.151877, 0.117286, -0.076285, -0.095887, -0.018991, -0.023444, -0.011657, 0.13785, -0.08208, -0.03172, 0.076973, -0.039211, -0.0022, 0.093921, 0.013661, -0.338321, -0.067775, -0.101431, -0.073533, -0.055468, -0.087835, -0.020801, 0.12782, -0.021576, -0.078485, 0.029858, -0.048927, -0.010928, -0.050414, -0.065529, -0.01991, 0.05035, 0.026742, 0.138904, 0.046534, 0.198109, 0.092484, 0.047614, -0.096454, 0.089787, -0.167483, -0.009379, -0.118958, 0.051465, 0.003526, -0.057813, 0.233393, -0.040623, -0.153012, -0.028274, 0.139592, -0.200084, -0.251059, 0.005231, -0.040342, 0.087034, 0.222402, -0.114888], [0.115701, 0.020749, 0.201061, -0.163127, -0.026313, 0.031601, 0.00667, -0.24922, -0.118727, 0.087127, 0.011029, -0.013804, 0.080733, -0.028729, 0.014117, -0.041808, 0.052582, 0.045852, 0.14464, 0.034103, 0.336891, 0.021633, -0.077633, -0.111879, 0.053708, -0.258718, -0.116223, -0.015728, -0.051301, 0.047011, -0.146726, 0.029025, -0.132315, 0.031638, -0.290117, -0.159771, -0.187305, -0.194066, -0.005486, -0.052183, -0.079666, 0.093437, -0.260287, -0.091567, 0.12906, 0.035822, 0.022586, 0.248393, -0.170627, -0.164723, -0.006916, 0.128707, -0.111507, 0.099655, -0.183035, 0.174777, 0.145086, -0.025154, -0.085536, 0.189783, 0.014005, -0.042511, -0.157767, -0.00144], [-0.227414, -0.011877, 0.199148, -0.004107, 0.188758, -0.057376, -0.314693, 0.080649, 0.040889, -0.157622, -0.030331, -0.106139, -0.003197, -0.040539, 0.045262, 0.032713, -0.014093, 0.019221, 0.35265, 0.220587, -0.096683, -0.125921, -0.066137, 0.003954, 0.145511, -0.003894, -0.091657, 0.003364, 0.162098, -0.200292, -0.082254, -0.000264, 0.076342, -0.22795, -0.127422, -0.015728, -0.210879, -0.1289, 0.020307, -0.040846, -0.110317, 0.214463, -0.083736, 0.075791, 0.058549, -0.079045, 0.018272, 0.212766, -0.226053, 0.037937, -0.056656, 0.13748, 0.140899, 0.05922, 0.015344, 0.065051, -0.112457, -0.132581, 0.105248, -0.088444, -0.02555, 0.051477, -0.158342, -0.052414], [0.126983, -0.03717, -0.007595, 0.078428, 0.066013, 0.151618, -0.231944, 0.107385, 0.071901, 0.145439, -0.022932, 0.049694, 0.169581, -0.174086, -0.008163, 0.021116, -0.133279, -0.098285, -0.150838, -0.097775, -0.096181, 0.0312, 0.049138, -0.03096, -0.018503, -0.022411, 0.072022, 0.074364, 0.104582, 0.177128, -0.012574, -0.090975, -0.087006, 0.278917, -0.044156, 0.108038, -0.000633, 0.019885, -0.140716, 0.089045, 0.018913, 0.181207, 0.082532, 0.083455, -0.169887, 0.007731, -0.146718, -0.043078, -0.166606, -0.002694, 0.1063, 0.067186, -0.039848, -0.162086, 0.157959, -0.089739, 0.044549, -0.002429, 0.081287, -0.092432, 0.100324, -0.048114, -0.210355, 0.121407], [0.089397, -0.062643, 0.101977, -0.125089, 0.10075, 0.101304, 0.027143, -0.194505, 0.021186, 0.16585, 0.04715, -0.060108, -0.011134, 0.008633, -0.061595, 0.099227, 0.035328, 0.119452, -0.075285, 0.088402, 0.230017, -0.096925, -0.075103, -0.15264, -0.069254, -0.00103, -0.036977, 0.039124, 0.082115, 0.006201, -0.080983, -0.056763, 0.092998, -0.127662, -0.152641, 0.228627, -0.076279, 0.254684, -0.160564, 0.245805, -0.010641, 0.087863, 0.026143, -0.037955, -0.219115, -0.12974, -0.02691, -0.15866, -0.139083, 0.114067, -0.0305, -0.045252, -0.235272, -0.112312, 0.009398, -0.016683, -0.092399, -0.14892, 0.036832, -0.08963, -0.045009, 0.109048, 0.039878, -0.015559], [-0.137315, -0.166535, 0.042146, -0.139827, -0.037905, -0.163393, -0.134113, -0.081568, 0.167713, -0.130965, 0.124673, -0.159501, 0.12172, 0.015172, 0.29941, 0.263629, 0.021252, 0.05645, 0.079678, 0.08269, -0.071218, 0.105706, 0.018404, 0.19757, 0.177137, -0.209594, 0.092595, -0.074611, -0.207218, -0.103295, 0.038655, 0.090299, -0.03038, 0.106953, 0.099544, -0.024471, -0.007516, 0.010134, 0.261619, -0.072073, -0.186382, 0.068979, 0.001657, 0.118854, 0.004779, 0.255988, 0.029697, -0.133985, 0.01992, -0.088444, -0.090365, 0.039962, -0.001585, -0.011141, -0.040297, 0.01549, -0.052786, -0.029428, 0.04194, -0.132975, 0.063461, 0.14926, 0.217216, -0.212455], [0.12349, -0.030686, -0.258837, 0.167008, -0.019662, 0.078745, 0.048219, -0.021368, 0.024462, -0.013047, 0.097536, 0.094546, -0.078755, -0.145244, -0.073901, -0.119206, -0.117661, 0.156363, 0.129427, -0.210825, 0.220945, 0.040408, -0.049348, -0.130856, -0.156614, -0.059052, 0.017199, 0.066602, 0.073083, -0.192226, 0.000138, -0.040009, 0.241387, -0.109377, -0.006518, 0.175069, 0.049618, -0.051317, 0.00404, -0.08649, -0.00578, 0.038039, 0.063026, 0.063709, -0.069004, -0.07899, 0.001769, 0.176653, 0.094154, 0.208914, 0.07521, 0.182103, -0.074524, -0.167754, 0.117734, 0.016392, -0.240199, -0.238292, 0.117031, 0.016014, -0.118845, 0.042647, -0.140648, -0.002393], [-0.076179, 0.09367, -0.097235, 0.119763, 0.196702, 0.020788, -0.045881, -0.104946, 0.115509, 0.058124, -0.031867, 0.006619, 0.243062, -0.177332, 0.119137, -0.091891, 0.056738, -0.244994, -0.033361, 0.021977, -0.009768, -0.208525, 0.090317, -0.070065, -0.112801, 0.020113, 0.010931, -0.032127, 0.045302, 0.046535, 0.019817, -0.025382, -0.194164, 0.102833, 0.10342, -0.012428, 0.009067, -0.024194, -0.161609, 0.053164, -0.023436, 0.216811, -0.001374, 0.042566, -0.118368, 0.287461, 0.013652, -0.024057, -0.190862, 0.12069, -0.020474, -0.028384, 0.066639, 0.153099, 0.057842, -0.050985, -0.080358, 0.095609, -0.142974, 0.043532, 0.080144, 0.18174, -0.066755, -0.321597], [0.110817, 0.080101, -0.119505, -0.090029, 0.045877, 0.15675, 0.046571, -0.124313, 0.028955, 0.393387, -0.013918, 0.003506, 0.108851, -0.011446, -0.063624, -0.077792, -0.126777, -0.015288, 0.007998, 0.022006, -0.138077, 0.137957, 0.011597, -0.071969, 0.018287, 0.054253, 0.148857, -0.016125, -0.14006, -0.027346, -0.092825, 0.130237, 0.128797, -0.049877, 0.064982, -0.1082, -0.117034, 0.137894, -0.055287, 0.050791, -0.11836, -0.093001, 0.015822, 0.085758, -0.106626, 0.103586, -0.096819, -0.06943, -0.088787, 0.059971, -0.066681, -0.030241, -0.00098, 0.052716, 0.050688, -0.051593, -0.077871, 0.029811, 0.134508, -0.177463, 0.037215, 0.034711, 0.158759, -0.045614], [-0.056996, -0.249714, -0.134537, 0.081029, 0.137854, 0.187742, -0.211211, 0.109743, 0.103485, 0.030146, -0.00365, 0.00016, -0.148933, 0.02811, 0.092494, 0.104944, -0.193965, -0.01021, 0.287191, 0.145536, 0.038647, -0.10933, -0.070224, -0.181512, 0.020366, 0.161062, 0.148621, 0.009127, -0.035069, -0.109358, 0.077929, -0.000756, 0.012193, -0.08746, -0.002858, 0.120174, 0.027527, 0.081556, 0.047694, 0.173152, 0.130047, 0.177194, 0.07974, 0.073059, 0.024982, -0.029154, 0.097287, 0.06256, -0.030899, -0.116388, 0.221709, -0.00965, 0.011592, 0.087542, 0.09446, -0.089238, -0.199964, -0.02672, 0.000905, 0.005758, 0.006225, 0.089866, 0.045297, 0.023679], [-0.109854, -0.133725, 0.006609, -0.037831, -0.044453, -0.046503, -0.113579, -0.075256, -0.062418, 0.149937, -0.025286, -0.056518, 0.002786, 0.118019, -0.129105, -0.068527, -0.273128, 0.056917, -0.04702, 0.023508, -0.051519, 0.077939, -0.110659, -0.07064, -0.200164, 0.322222, 0.008741, -0.134507, 0.094157, 0.004725, -0.002694, -0.065369, -0.026665, 0.032685, 0.061193, -0.039576, -0.071638, 0.15289, 0.053449, 0.128649, 0.019419, -0.029849, -0.143075, -0.250595, 0.038712, 0.115355, -0.088763, 0.132726, -0.039717, -0.134701, 0.016363, 0.023114, -0.096792, -0.10719, 0.246961, 0.383754, 0.049858, -0.011457, -0.024881, -0.062527, 0.012792, 0.137975, 0.024918, -0.184297], [-0.035777, -0.079799, -0.176555, 0.031269, 0.13333, -0.047062, -0.243771, 0.031389, 0.099013, -0.205155, -0.113973, 0.301197, 0.020569, -0.064585, 0.24882, -0.160417, 0.15455, -0.034839, 0.108295, -0.135615, 0.041537, -0.092584, -0.225831, 0.075205, -0.053851, 0.180273, 0.203864, 0.096881, -0.270664, 0.00922, 0.128394, -0.011451, 0.175121, 0.206644, 0.149557, -0.053595, -0.015249, 0.058733, 0.094297, 0.216609, -0.132963, -0.017589, 0.134172, 0.044117, 0.006817, 0.239855, 0.0965, -0.074717, 0.127463, -0.218449, -0.029524, -0.003124, -0.047348, 0.18652, -0.158686, 0.238481, 0.20652, 0.14749, -0.034657, 0.145052, 0.04671, -0.058141, 0.225341, 0.22131], [0.086807, 0.092367, 0.161629, 0.015762, -0.178172, 0.117345, 0.030778, 0.025058, 0.081471, -0.005457, -0.103195, -0.042083, 0.141223, 0.152696, -0.036429, -0.171925, -0.081705, -0.256134, -0.025473, -0.038166, -0.003833, -0.029431, -0.008855, -0.098477, 0.066956, 0.045032, 0.027742, 0.007986, 0.080805, -0.159808, 0.086058, 0.133072, 0.005174, -0.006835, -0.202184, 0.155943, 0.041647, -0.080019, 0.123849, -0.068033, 0.099251, -0.239513, -0.123789, 0.085217, -0.00764, 0.062758, -0.115302, -0.104707, 0.183353, 0.171442, 0.098975, 0.144025, 0.272505, 0.082072, -0.007557, -0.018293, 0.149015, -0.01788, 0.166563, 0.038616, -0.020161, 0.041436, -0.084874, -0.117222], [0.158785, -0.073735, 0.037625, 0.046963, -0.16552, 0.144683, 0.256289, -0.138627, -0.373451, -0.002318, -0.118573, 0.021759, -0.154544, 0.109088, 0.034122, 0.132942, 0.025421, 0.137887, 0.122739, -0.082559, -0.15467, -0.193988, -0.208736, 0.15911, 0.122567, 0.108291, -0.012883, -0.153461, -0.362401, 0.116545, -0.143945, 0.082865, 0.211112, 0.066464, -0.196744, -0.122627, -0.045927, -0.013606, 0.119722, 0.039893, 0.014086, -0.095466, 0.06612, -0.227703, 0.243506, 0.101274, 0.115704, -0.038781, 0.045323, -0.165972, -0.069906, -0.271702, 0.200472, 0.034795, 0.139545, 0.093372, -0.007914, 0.119697, -0.045503, 0.123589, -0.00356, -0.192581, -0.082823, -0.052772], [-0.085496, 0.168679, -0.0234, -0.259617, 0.246748, -0.127911, 0.06852, 0.020355, 0.247987, -0.091792, 0.083959, 0.04209, -0.115101, -0.240815, 0.082493, -0.165691, -0.195476, -0.053689, -0.096027, -0.196581, -0.137253, 0.001178, 0.121264, 0.073953, -0.052069, 0.098134, 0.099724, -0.089989, -0.046015, -0.147685, 0.11594, -0.028581, 0.043923, 0.093749, 0.014069, -0.125858, 0.172835, 0.23614, -0.017012, 0.15469, -0.16152, 0.086889, 0.061624, 0.017195, -0.089718, -0.246535, -0.004556, 0.154548, 0.133857, -0.027303, -0.117395, 0.090679, -0.140893, -0.075897, 0.036814, -0.026604, -0.030183, -0.013563, -0.034426, 0.208628, 0.170931, 0.119438, -0.195675, 0.001124], [-0.138762, 0.335446, 0.112157, 0.009682, 0.140241, 0.158275, -0.061985, 0.192645, 0.053672, -0.117206, -0.051627, 0.076618, -0.209055, 0.027759, -0.138425, -0.059746, -0.020245, -0.030373, -0.068973, 0.049433, -0.187469, -0.017405, -0.062208, -0.177797, 0.090181, 0.112947, 0.157678, 0.087437, 0.00485, -0.078451, 0.162279, 0.05568, 0.160377, 0.055313, 0.167365, -0.050355, 0.023005, -0.169119, 0.02373, 0.040962, -0.19606, -0.042836, 0.01928, 0.091841, 0.092104, -0.086381, 0.092156, 0.075034, 0.097126, 0.005569, 0.173245, -0.335801, -0.090989, 0.139264, -0.074972, -0.184659, -0.062297, 0.012843, -0.018619, -0.118858, 0.006018, -0.045119, -0.024928, -0.10559], [-0.013081, -0.045383, -0.073738, 0.064032, -0.040018, -0.096192, 0.246486, 0.121311, -0.021589, -0.046302, 0.170825, 0.01035, -0.088743, 0.043663, -0.086089, -0.212801, -0.076659, 0.057372, 0.02711, 0.068853, -0.111443, -0.072996, -0.268175, 0.127268, -0.086192, -0.101413, -0.140428, 0.023529, 0.295041, -0.025357, -0.00878, 0.072543, -0.100122, 0.066823, -0.100087, -0.065613, -0.06049, -0.000694, 0.041043, 0.11666, 0.000968, -0.119611, -0.086338, -0.127907, 0.009087, 0.026956, 0.001114, 0.100738, -0.01912, -0.348724, 0.184137, 0.075368, 0.275102, -0.106171, -0.01244, -0.078316, 0.094126, 0.064905, -0.016482, -0.191205, 0.032921, -0.13529, 0.211229, 0.161966], [-0.076969, 0.076148, -0.022398, 0.162276, -0.056096, 0.101917, 0.08417, -0.085238, 0.098455, -0.088323, 0.06978, -0.29717, -0.003897, 0.18082, -0.15894, 0.075864, -0.028053, 0.06566, -0.099028, -0.202213, 0.035609, 0.096981, 0.105575, 0.005355, -0.091376, 0.128988, -0.068554, 0.016323, 0.014872, -0.221103, -0.131016, -0.050708, -0.297072, -0.094102, 0.011362, 0.058499, -0.159716, 0.156391, 0.283712, 0.045558, -0.071245, 0.188962, -0.099488, -0.037699, 0.001518, 0.193966, 0.020859, -0.046704, 0.163271, 0.033754, -0.016462, -0.142582, 0.092282, -0.00671, 0.182248, -0.000119, -0.078286, 0.318764, 0.001796, 0.00324, 0.025995, -0.238247, 0.060208, 0.040041], [-0.041961, -0.116966, 0.041205, 0.061838, -0.092406, 0.099393, -0.15255, 0.045349, 0.038048, 0.108655, 0.110112, 0.015981, -0.080105, 0.14721, 0.067514, -0.005998, 0.054728, -0.14095, -0.146309, 0.003069, 0.090324, -0.198475, 0.1469, 0.133463, -0.085765, -0.075228, 0.03905, -0.163265, -0.160483, -0.16786, -0.038454, -0.021518, -0.095802, 0.091246, -0.005011, -0.220405, 6e-06, -0.264429, -0.047101, 0.084284, 0.030625, 0.019866, 0.019393, -0.348136, -0.016079, -0.152726, 0.173791, -0.009423, -0.046251, 0.018927, 0.007695, 0.203762, 0.062274, -0.038824, 0.045746, 0.111775, 0.008562, -0.03802, -0.059793, 0.062133, -0.147188, -0.065553, 0.056118, -0.13665], [-0.077947, 0.090377, -0.037503, -0.048525, 0.154117, 0.224669, 0.207805, 0.038035, -0.165025, 0.203741, -0.087454, -0.093915, -0.012924, 0.009943, 0.021566, 0.08274, -0.013285, -0.197465, -0.104774, -0.267442, 0.086503, -0.082044, 0.152747, 0.033026, -0.121085, -0.048778, -0.189514, -0.026702, -0.126877, -0.060522, 0.067117, -0.02796, 0.11783, -0.064143, 0.056701, 0.100973, 0.143536, 0.030555, 0.139897, -0.072587, 0.098049, -0.159523, -0.179405, -0.023392, 0.013168, -0.036666, -0.019552, 0.180481, 0.113206, -0.017886, 0.045527, 0.094283, -0.013939, 0.125947, 0.048789, 0.300882, -0.089552, 0.123534, 0.04708, -0.091437, -0.145512, -0.038075, -0.002088, -0.038196], [0.114712, 0.065288, -0.228694, -0.031209, -0.012128, 0.035131, -0.098809, 0.233208, -0.372901, 0.337594, 0.125288, 0.129426, 0.038461, 0.176341, -0.063099, -0.038981, 0.011298, 0.059496, 0.054061, 0.275319, 0.047105, 0.170276, -0.092649, -0.079502, 0.170991, -0.02072, -0.013091, 0.161778, 0.183589, -0.150065, 0.10204, 0.051253, 0.139822, 0.050487, 0.073266, 0.187788, 0.061881, 0.106667, 0.131151, 0.066366, -0.073562, 0.175617, 0.014445, -0.002434, -0.001317, 0.034153, 0.163739, 0.250029, -0.235414, 0.213136, -0.153098, 0.063364, 0.209455, -0.031492, -0.175366, -0.05183, -0.250992, 0.098291, -0.230653, -0.105462, 0.140517, -0.028352, 0.170958, 0.166604], [0.086221, -0.127477, -0.188765, 0.14648, 0.008907, 0.027058, 0.071384, -0.002433, 0.069719, -0.167624, 0.040523, -0.084446, 0.024382, 0.047829, 0.112105, 0.044018, -0.084992, 0.047596, 0.178171, 0.263478, -0.149979, -0.112948, 0.024545, -0.054378, 0.035545, 0.054653, -0.037479, -0.044968, 0.081383, 0.01865, 0.246175, 0.037594, 0.12516, 0.073567, -0.085614, 0.106281, -0.146634, 0.034803, 0.07816, 0.02164, 0.121913, -0.110308, -0.161126, 0.10692, -0.179029, -0.069144, 0.134408, 0.13974, 0.069164, -0.22471, 0.005744, -0.125554, 0.086335, -0.190505, 0.056653, 0.044132, -0.135373, 0.091143, 0.006867, -0.046171, 0.062429, 0.237841, -0.161534, 0.148513], [0.068813, -0.094499, -0.017921, -0.0489, -0.053463, 0.141887, -0.170552, 0.000126, 0.020545, 0.177577, 0.089754, 0.054613, 0.221377, 0.155712, 0.020795, -0.104811, -0.13036, 0.108017, -0.038825, 0.052819, -0.054244, -0.114814, 0.0354, 0.262084, -0.060389, -0.120511, -0.147682, -0.018387, 0.157756, 0.106827, 0.212037, 0.226512, -0.013664, -0.083698, -0.087237, -0.077073, -0.037432, -0.173809, -0.039898, 0.089485, -0.021772, -0.019435, 0.216715, 0.108247, -0.013248, -0.236753, -0.012083, -0.016264, -0.256961, -0.115006, -0.067509, -0.030223, 0.012589, -0.14047, 0.034063, -0.029781, 0.178835, -0.032196, -0.017741, 0.205502, 0.015594, -0.076575, -0.098068, -0.030712], [0.170741, -0.216269, 0.223766, 0.006809, 0.062035, -0.070506, -0.145344, 0.110729, -0.198018, 0.113199, 0.132618, -0.134791, -0.139538, 0.015256, -0.124608, -0.054704, 0.278468, -0.055592, 0.118352, -0.086762, -0.067249, -0.148019, -0.024907, 0.220184, 0.026034, -0.118699, 0.042897, -0.063407, 0.002622, -0.051983, -0.097204, -0.025179, 0.146777, 0.183781, 0.029669, -0.135859, 0.151593, 0.047505, 0.041077, 0.047248, 0.185271, 0.091972, 0.124501, 0.095232, 0.125078, -0.03741, 0.027667, -0.165666, 0.075628, 0.220457, -0.009831, 0.049429, -0.013073, 0.078869, -0.013576, 0.313674, 0.008641, -0.029926, -0.197541, 0.199277, -0.035014, 0.082098, 0.174402, -0.113744], [0.132244, 0.032729, 0.079416, 0.0087, -0.077311, -0.008542, 0.181154, 0.00161, 0.057045, -0.013283, 0.112196, 0.061359, -0.087963, -0.282506, -0.336197, -0.251853, 0.065869, 0.149936, -0.066145, 0.052458, -0.057989, -0.152244, 0.040801, -0.083982, 0.037843, 0.082508, -0.082129, 0.031891, 0.201071, -0.196839, -0.158772, -0.346289, -0.150155, -0.190998, 0.183302, 0.010348, 0.053625, 0.040894, 0.153313, 0.135318, 0.020397, 0.251644, 0.060005, 0.104902, -0.010103, -0.071686, -0.099728, -0.072445, -0.01536, -0.105828, 0.009711, 0.059101, -0.022339, 0.15554, 0.011692, 0.066864, 0.072884, -0.088521, -0.017679, 0.203004, -0.119714, 0.2023, 0.108686, 0.030637], [0.081816, -0.079216, -0.204861, 0.075706, 0.136778, -0.114006, -0.314948, -0.206375, 0.115248, -0.138875, -0.122085, -0.032079, 0.009995, 0.127593, -0.075022, 0.16884, 0.275977, -0.040711, -0.076439, -0.143333, 0.154045, -0.012672, 0.043613, 0.068634, -0.058046, 0.111501, -0.121182, 0.094326, -0.037805, 0.072757, -0.047195, 0.072243, 0.279881, 0.151603, 0.222736, 0.183832, 0.054118, 0.118569, -0.019541, -0.178531, 0.039021, -0.192069, 0.43087, 0.061356, 0.027632, 0.114826, -0.340047, -0.120576, 0.182752, -0.076274, -0.190006, 0.18488, -0.163721, 0.007651, 0.105454, -0.041849, 0.054112, -0.101299, 0.121678, 0.034175, 0.133511, 0.113778, 0.059609, -0.09544], [0.189386, 0.174638, -0.071503, -0.132624, 0.045179, -0.022216, -0.064074, -0.038401, -0.082716, -0.056874, 0.111877, -0.21518, -0.020245, 0.036092, -0.14142, 0.049818, -0.269121, 0.098643, 0.079613, -0.242983, 0.179483, -0.194634, 0.043063, -0.031952, 0.082316, 0.174293, -0.024353, 0.168775, 0.155377, 0.060762, -0.282218, 0.155946, -0.080362, -0.070287, -0.005368, -0.16805, -0.04601, 0.0273, 0.083223, 0.032056, -0.177743, -0.058453, -0.001472, -0.015183, 0.056723, -0.072353, -0.05731, -0.061256, -0.037297, -0.16804, 0.182285, 0.073731, -0.05061, 0.0047, 0.056847, 0.06019, 0.053629, 0.016969, 0.011233, 0.223623, -0.171927, -0.079815, 0.131382, -0.035755], [-0.145413, -0.124056, 0.111671, 0.231246, -0.066131, 0.029898, 0.020716, -0.072888, -0.108222, 0.095543, -0.05394, -0.052896, -0.134349, 0.017744, -0.232131, 0.122456, 0.092393, -0.036762, 0.10013, -0.043309, -0.113315, -0.131959, 0.186082, 0.270169, 0.126059, -0.112382, 0.040739, -0.110536, 0.08415, 0.101486, 0.151559, -0.061839, -0.006625, -0.0291, 0.074302, -0.027824, 0.162463, -0.066871, -0.246533, -0.004812, -0.100103, -0.108077, 0.112358, -0.044036, -0.071562, 0.072927, 0.033104, -0.069357, 0.104501, -0.0834, -0.052672, -0.079991, -0.113541, -0.24762, 0.229539, -0.093513, 0.073012, -0.178139, 0.202557, 0.014492, -0.111141, 0.076047, -0.224387, -0.059877], [-0.061918, 0.228392, 0.097539, -0.035476, -0.082504, -0.082825, -0.073323, 0.116941, -0.064621, -0.006251, 0.0166, 0.040005, 0.171914, -0.231815, -0.001179, 0.114237, -0.059039, -0.070056, -0.076429, -0.029836, -0.112134, 0.219904, 0.050446, 0.006196, 0.128917, -0.113279, -0.167116, 0.094081, -0.122939, -0.222591, -0.081844, -0.022912, -0.2143, -0.057418, -0.056648, 0.021909, -0.346419, -0.127178, 0.005494, -0.029897, -0.186124, -0.135177, 0.328141, 0.032362, -0.161331, 0.123069, 0.12279, -0.042514, -0.054548, 0.231293, -0.062946, -0.123207, -0.035052, 0.011575, -0.061785, 0.070242, -0.15005, 0.032759, -0.252591, -0.109632, 0.154486, 0.100434, 0.09237, -0.024367], [-0.090021, 0.035166, -0.029084, -0.178691, 0.347816, 0.030755, 0.039923, 0.075448, 0.086786, -0.112472, -0.008846, 0.0342, 0.246718, 0.033122, -0.112996, -0.192326, 0.139973, 0.083436, 0.027769, -0.110655, 0.043379, 0.051523, 0.210014, -0.095156, 0.17342, 0.143531, 0.080583, 0.042102, 0.231465, -0.054386, -0.062893, 0.183556, -0.037406, -0.085815, 0.12108, 0.131519, -0.006819, -0.149094, -0.026492, 0.057313, -0.110796, -0.028854, 0.108383, 0.143557, -0.029128, 0.065126, 0.156588, 0.089246, -0.007187, -0.060614, -0.054264, -0.05168, 0.17543, 0.144038, 0.0959, -0.160584, -0.26173, -0.107303, 0.159838, -0.018128, -0.172982, -0.018074, -0.053632, -0.208923], [-0.014636, 0.177327, -0.156586, -0.125369, 0.151994, 0.001374, 0.115213, -0.142209, -0.220584, 0.143816, 0.123217, 0.254471, 0.123839, 0.073388, 0.142947, -0.028169, 0.044509, -0.04069, -0.03444, -0.074492, -0.040282, -0.125086, -0.042171, -0.067389, 0.12791, 0.208738, 0.158112, 0.047295, -0.274325, 0.182008, -0.024546, -0.141327, -0.111465, 0.000499, -0.008791, -0.00071, 0.029048, 0.229759, 0.033768, -0.032696, -0.136109, -0.28699, 0.156308, -0.137323, -0.057406, 0.14687, 0.123828, 0.067693, 0.011212, -0.075022, -0.072121, 0.038917, 0.247566, -0.038605, -0.174634, -0.084128, 0.228046, 0.224894, 0.166283, -0.045409, -0.201865, 0.163126, -0.018637, -0.095774], [0.183064, 0.050429, 0.000123, -0.075402, 0.085264, -0.085834, -0.00179, -0.000735, -0.126124, 0.004467, -0.051399, -0.008587, 0.018411, 0.195712, -0.202055, -0.167487, 0.127208, 0.12947, -0.07004, -0.079645, 0.015584, 0.031001, -0.022075, 0.080204, 0.018533, 0.101541, -0.05322, -0.0622, -0.083202, 0.008677, 0.050469, 0.02329, -0.060715, 0.04392, -0.048879, 0.01633, -0.133295, -0.141728, -0.232586, -0.096529, 0.001621, 0.128379, 0.215782, -0.005721, -0.081967, -0.021535, -0.077853, -0.185001, -0.174069, 0.119863, 0.348725, 0.104107, -0.00424, -0.106339, -0.161218, -0.30398, 0.168983, -0.011779, -0.09439, 0.059974, 0.054457, 0.130469, -0.07657, -0.103034], [0.01077, -0.167741, -0.219299, -0.040151, 0.098391, -0.068293, 0.04453, 0.003035, 0.088893, 0.21964, 0.273793, -0.180033, -0.127755, 0.026427, 0.055005, -0.224849, -0.014451, -0.10913, -0.163272, -0.041413, -0.179607, -0.182243, 0.052845, -0.133685, -0.173189, -0.035089, 0.023268, -0.011069, 0.268085, -0.049339, 0.093595, 0.173991, -0.038661, 0.030676, 0.119121, -0.118956, -0.115874, 0.051162, -0.037555, 0.017623, -0.083541, 0.047882, -0.067489, -0.086015, -0.161334, -0.062126, -0.002413, -0.018732, 0.134252, -0.066263, 0.113291, 0.131325, -0.154512, 0.043358, -0.117098, 0.027298, -0.226918, 0.170945, -0.01067, -0.087355, 0.073508, 0.041951, -0.043853, -0.116903], [0.223489, -0.152307, 0.000141, -0.005955, -0.026256, -0.025708, 0.21169, 0.058268, 0.04416, -0.142613, -0.259353, -0.087198, 0.063226, 0.042873, 0.14065, -0.003675, 0.025072, -0.053636, 0.028233, -0.09523, 0.022169, 0.242508, 0.167402, -0.142355, -0.198234, 0.104633, -0.275258, 0.098684, -0.085331, -0.033914, -0.034667, -0.101829, -0.117679, 0.185884, -0.103968, 0.100229, -0.082138, 0.116553, -0.007378, -0.116943, -0.015727, -0.144515, -0.045779, 0.075423, -0.063573, -0.111797, -0.133861, 0.155765, -0.040701, -0.069947, 0.044066, 0.083849, -0.291278, 0.198632, 0.118772, -0.135692, -0.145604, -0.106915, 0.034142, -0.178216, 0.040327, 0.014959, -0.157606, 0.095599], [0.105475, 0.019158, 0.210982, -0.113201, 0.025955, -0.01342, 0.109442, 0.13216, -0.352431, -0.193118, -0.046886, -0.004818, -0.121842, 0.041398, -0.116897, 0.116158, 0.039697, 0.040989, 0.204943, -0.085661, -0.195271, 0.031434, -0.076989, -0.120229, 0.12953, -0.078459, 0.241741, -0.035818, 0.036117, 0.013204, -0.01139, 0.01319, -0.105595, -0.074453, -0.192791, 0.054836, -0.024748, 0.242428, 0.14244, 0.111875, 0.056601, -0.138356, 0.188806, -0.028984, -0.095587, 0.022506, 0.000321, 0.025893, 0.07264, -0.012855, 0.075032, -0.308904, 0.070166, -0.100025, -0.013299, 0.052059, -0.135372, -0.009658, 0.056868, 0.146138, 0.043204, -0.049683, 0.03823, 0.087869], [0.073458, 0.098093, -0.097633, 0.154119, 0.004241, 0.033135, 0.04703, 0.158726, -0.179817, 0.158387, -0.06086, -0.127485, 0.179899, -0.055504, 0.010535, -0.07501, -0.025152, 0.168666, 0.152689, -0.091946, -0.10756, 0.056236, 0.035335, -0.052353, 0.059982, 0.079603, 0.075781, 0.021839, -0.020509, 0.090982, -0.072534, 0.277179, -0.10831, -0.073383, -0.20794, -0.03414, -0.100487, 0.023433, -0.143789, -0.190265, -0.17155, 0.036099, -0.084708, 0.158269, 0.060549, 0.172027, 0.026186, 0.102499, 0.015346, -0.042185, 0.016212, 0.022015, -0.110125, -0.189681, 0.190811, -0.131946, 0.080001, -0.064944, -0.096892, 0.161565, 0.032778, 0.091395, -0.114232, 0.048166], [-0.049289, 0.056513, 0.088954, 0.041507, 0.088876, -0.022239, -0.132221, -0.190894, 0.125136, -0.132819, 0.056725, -0.014878, 0.011403, -0.109033, 0.093953, 0.074103, 0.057268, -0.111475, 0.148714, -0.153432, 0.107372, -0.184227, 0.195103, 0.086322, -0.210379, -0.03352, -0.121645, -0.12639, 0.092008, -0.146889, -0.092974, 0.304822, 0.02243, 0.228704, 0.015437, 8.6e-05, 0.018634, -0.165191, 0.065262, 0.029817, -0.121096, -0.150716, -0.228939, -0.045874, -0.110469, 0.102817, -0.050806, 0.098383, 0.18155, 0.028361, -0.063644, 0.242966, -0.054302, 0.07051, -0.059879, 0.015853, -0.055807, 0.012573, 0.012418, -0.080003, 0.176859, -0.028299, -0.085865, -0.178479], [0.007392, 0.35178, 0.150232, -0.057876, -0.125674, -0.170609, 0.162317, -0.222024, 0.040927, 0.155021, 0.234926, 0.02081, -0.048175, 0.012559, 0.034762, -0.051823, -0.005152, -0.018502, 0.063686, 0.027439, 0.062437, -0.00167, 0.001188, -0.256401, 0.290699, -0.089932, -0.043069, -0.016039, 0.226429, 0.096498, 0.290579, 0.138951, -0.222118, -0.073702, -0.134778, 0.17991, -0.032262, -0.082244, -0.133036, 0.076827, 0.064666, 0.072039, -0.025848, -0.3428, 0.005742, -0.022931, -0.106113, -0.181319, 0.05448, 0.001779, 0.156794, -0.130954, 0.1282, -0.077934, 0.124721, 0.100513, 0.025528, -0.0963, 0.085998, -0.015405, 0.08867, -0.101112, 0.059014, 0.053251], [-0.143857, -0.197564, -0.102106, 0.149963, -0.089153, 0.165524, 0.163693, 0.217146, 0.027015, 0.009732, -0.052607, -0.013059, -0.165832, -0.055782, 0.174638, -0.001658, -0.072671, -0.127539, -0.172957, -0.250909, -0.064236, 0.03394, -0.091849, 0.018461, -0.115426, 0.006691, 0.136349, 0.377764, 0.027051, 0.036222, 0.251008, 0.263282, -0.072541, 0.123252, -0.083796, -0.109176, -0.236784, 0.00826, -0.2243, -0.162628, -0.097708, -0.070118, 0.298967, -0.2357, -0.119534, 0.012629, -0.311188, 0.085014, -0.282195, -0.101188, 0.069276, 0.061322, -0.09813, -0.081327, 0.034758, 0.059111, -0.01665, 0.116677, 0.026351, -0.105889, -0.02349, -0.219587, 0.045301, 0.060846], [0.179705, 0.112463, -0.203605, 0.115445, 0.459695, 0.184509, 0.00909, -0.003309, 0.047707, 0.010102, -0.175872, 0.025504, -0.101635, 0.001076, -0.11222, -0.073589, -0.164841, -0.19507, 0.095137, 0.145183, 0.04749, 0.022879, 0.01635, -0.090423, -0.107121, 0.149418, 0.027467, -0.029923, -0.047374, 0.056621, 0.177575, 0.062076, -0.04075, 0.117458, 0.054297, -0.070522, 0.043048, -0.084318, 0.065316, 0.013038, 0.226624, 0.108223, -0.079989, 0.168761, -0.04194, 0.001059, 0.01221, 0.066772, -0.082188, 0.021036, 0.069864, -0.084043, 0.063233, 0.109965, 0.287681, 0.002044, -0.059961, -0.194015, 0.024313, -0.063678, 0.044351, 0.054748, -0.076786, 0.173125], [-0.053192, 0.118746, -0.128152, 0.104872, -0.031303, 0.225804, -0.07309, 0.221341, 0.112351, 0.166094, -0.053949, 0.152304, 0.059755, 0.031003, -0.052945, -0.165295, 0.121441, 0.09734, 0.276809, 0.059721, 0.0567, 0.160658, -0.095181, 0.080064, -0.014776, 0.105101, -0.149321, -0.147863, 0.119903, 0.014588, 0.008802, -0.164501, 0.09958, -0.156717, 0.01347, -0.07967, 0.065528, 0.021221, 0.005673, 0.210204, 0.118346, 0.197787, 0.09705, 0.202972, -0.037959, 0.222811, 0.092935, -0.181154, -0.121704, 0.115941, -0.034003, -0.130056, 0.057821, -0.002194, 0.231899, -0.16931, 0.01632, 0.169063, -0.204765, -0.165644, 0.097102, 0.156612, -0.276128, -0.165875], [-0.065247, 0.013713, 0.031821, -0.086046, 0.109287, -0.00448, 0.055738, 0.119859, 0.104103, 0.020114, -0.098525, -0.044415, 0.149097, 0.071083, -0.033477, 0.144378, -0.039601, 0.287435, -0.059987, 0.027109, 0.105041, -0.077175, -0.00975, -0.13424, -0.004003, -0.033405, 0.080654, 0.163857, -0.231135, -0.262277, 0.004819, -0.06169, 0.110325, 0.138574, -0.036335, 0.209829, -0.102932, -0.017527, 0.055355, -0.011707, 0.11345, -0.230986, -0.283376, -0.154378, -0.145162, 0.026923, -0.019308, 0.000798, 0.230804, -0.135159, -0.069286, 0.103618, 0.16021, 0.046028, -0.102008, 0.079537, -0.025815, -0.17006, -0.185173, 0.012047, 0.089605, -0.023387, -0.147743, -0.039515], [0.010679, -0.015755, -0.014414, 0.0154, 0.098331, -0.024997, 0.047565, 0.087641, 0.169544, -0.142791, 0.116384, 0.262704, 0.315252, -0.200495, 0.101982, 0.068885, -0.174919, 0.005135, 0.223007, 0.126034, -0.147948, -0.071883, -0.046684, -0.082715, -0.166806, 0.048826, -0.138988, -0.051487, -0.142217, -0.205104, -0.03328, -0.219942, -0.41002, 0.07282, -0.014446, -0.117216, -0.047991, -0.007194, -0.117746, -0.234853, 0.076037, 0.13045, 0.156827, 0.119531, 0.028225, 0.046872, -0.142714, -0.106357, 0.074689, 0.061394, -0.022553, -0.035536, -0.06286, -0.169978, -0.081844, 0.180763, -0.018826, -0.140929, -0.038352, 0.180667, 0.048399, -0.179041, -0.329458, -0.043922], [0.062449, -0.050474, 0.007912, -0.11074, 0.089885, 0.161725, 0.019977, -0.107223, -0.134534, 0.015487, -0.17017, -0.056321, 0.119874, 0.005469, -0.102737, -0.049278, 0.183326, 0.176774, -0.094808, 0.139447, -0.098781, 0.020063, -0.076613, 0.263841, -0.063559, -0.246614, -0.010255, -0.02291, -0.013176, 0.021429, 0.134988, 0.001395, -0.148585, -0.06774, -0.053718, 0.10884, -0.149874, -0.091041, -0.156014, 0.17711, 0.036925, -0.299667, -0.24626, -0.120995, -0.017406, 0.184106, -0.228282, 0.01337, -0.012724, 0.117024, -0.146, -0.14154, 0.012665, 0.101703, -0.008056, -0.171762, -0.012228, 0.151716, -0.148734, 0.144502, 0.050525, -0.043663, 0.081756, 0.126699], [-0.046982, 0.035513, -0.396245, -0.361995, -0.042615, -0.235274, -0.116866, 0.158091, 0.051233, 0.057954, -0.199701, 0.042915, 0.172821, -0.178197, 0.053186, -0.143306, -0.084891, 0.024097, 0.105179, 0.083588, -0.238175, 0.026039, -0.088841, 0.058792, -0.131777, 0.015676, 0.073009, 0.069705, 0.162903, 0.101685, 0.211858, -0.256412, 0.226582, -0.040769, -0.019196, 0.231075, -0.060361, -0.037264, -0.254547, -0.06285, 0.104835, -0.025948, 0.177091, -0.188934, -0.070612, 0.253781, -0.003572, -0.185146, -0.103775, 0.176294, -0.047244, -0.024021, 0.058432, 0.032467, 0.154217, 0.013774, 0.151246, 0.036331, -0.119687, 0.006648, -0.305934, 0.033693, 0.172827, -0.010261]], "biases": [0.005331, 0.101041, -0.065997, -0.209338, 0.093559, 0.048979, -0.11884, -0.149702, -0.025993, -0.069232, -0.093902, 0.043148, 0.008899, -0.281551, -0.102604, 0.071681, 0.002675, -0.022997, 0.072833, -0.002504, -0.081283, -0.053342, -0.006634, -0.017076, 0.073888, 0.042121, 0.09816, -0.160988, -0.052855, 0.068252, 0.019993, 0.033794, -0.000295, 0.027617, 0.006412, -0.098862, 0.163301, -0.043155, 0.017444, -0.182879, 0.082685, -0.055696, 0.207928, 0.01585, -0.010072, 0.049433, 0.05509, 0.136774, 0.094139, 0.038291, -0.103503, 0.155312, -0.045581, -0.081497, -0.044783, -0.221887, -0.05944, 0.040909, -0.115947, 0.056051, 0.130779, 0.097895, 0.093331, 0.029481], "activation": "sigmoid"}, {"weights": [[-0.08966, 0.134358, -0.298964, 0.14711, -0.063648, 0.01242, 0.049623, 0.076456, -0.202725, 0.073521, 0.060628, 0.000999, 0.144909, -0.229233, 0.078194, 0.134734, 0.000938, 0.20384, 0.23246, -0.237955, 0.020021, 0.036249, 0.122715, -0.138186, 0.042779, -0.083258, -0.001954, 0.046166, -0.134583, -0.013988, 0.024343, 0.03957, 0.063275, 0.175581, -0.085952, 0.142394, -0.031824, 0.062965, 0.071479, 0.105456, -0.132325, 0.152492, -0.050202, -0.012983, 0.000374, -0.037571, -0.07427, -0.131086, 0.251669, 0.307537, -0.229109, -0.032701, 0.00694, 0.09328, 0.033753, -0.180764, 0.137497, -0.143426, 0.103007, -0.049662, 0.189549, -0.052447, -0.033086, -0.14803], [0.054743, 0.064361, -0.199606, -0.054734, 0.01544, 0.071091, 0.22522, 0.131655, -0.033928, -0.159302, 0.222524, -0.051752, 0.138758, 0.165487, -0.01821, -0.222469, 0.130727, 0.040837, -0.003121, -0.000206, 0.009458, 0.106512, 0.106108, -0.065249, 0.056947, 0.14583, -0.029695, 0.134189, -0.446805, 0.018259, 0.073585, -0.076608, 0.045194, 0.14116, 0.036851, 0.213499, 0.0986, 0.226997, -0.291489, -0.055202, -0.315618, -0.048283, -0.250717, 0.069036, -0.133469, -0.034605, 0.020493, 0.013449, 0.089285, 0.223634, 0.000761, 0.149951, -0.118293, -0.133648, -0.23213, -0.028141, -0.027852, 0.04779, -0.076079, 0.023886, -0.097148, 0.000431, -0.12353, 0.031297], [0.191424, -0.087111, 0.060093, 0.051929, 0.21626, -0.025218, 0.01182, -0.185002, -0.038279, 0.11688, -0.08361, -0.077565, -0.064984, -0.078929, -0.106296, 0.182418, 0.110597, 0.084207, 0.083272, -0.180362, 0.132595, 0.060807, 0.294883, -0.096195, 0.243055, 0.113628, 0.130286, 0.034377, 0.039263, 0.080103, -0.067833, 0.069357, 0.028486, 0.01116, -0.052389, 0.136292, 0.27798, 0.013517, 0.054423, -0.105484, 0.019134, -0.323576, -0.08213, -0.180394, 0.117046, -0.273536, 0.105068, -9.7e-05, -0.051756, -0.174407, -0.089264, -0.086765, -0.113342, -0.109325, 0.037273, 0.114252, 0.01839, 0.071548, -0.080772, -0.130003, 0.009976, 0.061711, -0.098743, -0.126982], [-0.084081, -0.006704, -0.062434, -0.02774, -0.104589, 0.119193, -0.082168, 0.157596, -0.098237, -0.061748, -0.04142, 0.1944, -0.048651, -0.156713, -0.026847, -0.311103, -0.097082, 0.095892, 0.031643, -0.095835, 0.128865, -0.00183, 0.090208, 0.117089, 0.139223, 0.196622, -0.021434, 0.215084, -0.115198, 0.322698, 0.024256, -0.050772, 0.210947, 0.209141, 0.025242, 0.072832, 0.00657, -0.050622, 0.088321, -0.001948, 0.080388, 0.118433, -0.428297, -0.065253, -0.177608, 0.048713, -0.045301, 0.155952, -0.1413, -0.030084, 0.089545, -0.054448, 0.168083, -0.143559, -0.201296, 0.301295, -0.014562, -0.132262, -0.10363, -0.160682, -0.014496, -0.163915, 0.043363, 0.019751], [0.058037, -0.130725, 0.009715, -0.064876, 0.124852, -0.066914, 0.135814, 0.018669, -0.184635, -0.010189, 0.020885, 0.274412, 0.004925, -0.118076, -0.224792, 0.051543, 0.311823, -0.052676, -0.08081, -0.183637, -0.045309, -0.231573, 0.110135, 0.210919, -0.072068, -0.134545, -0.011945, 0.001936, 0.105796, 0.092573, 0.057638, 0.232037, 0.135873, -0.082813, 0.049224, -0.04776, 0.081944, -0.094747, -0.00621, 0.06279, 0.314609, -0.0321, -0.065205, 0.142251, -0.133663, 0.079996, -0.016306, -0.129025, -0.130672, 0.061093, -0.080432, 0.096294, -0.063478, -0.023038, 0.177132, -0.1457, 0.041745, 0.033352, 0.101029, 0.014135, 0.02276, 0.108638, -0.007311, 0.295404], [-0.164477, 0.281023, 0.063985, 0.091373, -0.098443, 0.143463, -0.075694, -0.192843, 0.081644, 0.007949, 0.032979, -0.166844, -0.006078, 0.155099, -0.063107, 0.036344, 0.074618, -0.015018, 0.09745, 0.005236, -0.127435, -0.102486, -0.035205, -0.126833, -0.112244, 0.083743, 0.052975, -0.157845, 0.108789, -0.200604, -0.023933, 0.08299, 0.171004, 0.327865, 0.179987, -0.03802, -0.156437, 0.219739, 0.146125, -0.057369, 0.19057, -0.072113, -0.357486, -0.076485, 0.228546, -0.063261, -0.083359, -0.011646, 0.025269, -0.12945, 0.167616, -0.018067, -0.244273, 0.075276, 0.076228, 0.000967, 0.040698, -0.151271, -0.038544, -0.130447, 0.166544, 0.145935, 0.185167, 0.026076], [0.12217, 0.113107, -0.108838, -0.121385, 0.053818, -0.113084, -0.128028, -0.090886, -0.335308, -0.052641, 0.077267, -0.025143, -0.074675, -0.07263, -0.169917, -0.19171, 0.095563, 0.114661, -0.063924, 0.113735, -0.182645, 0.068288, -0.233498, -0.030526, -0.206137, -0.136846, -0.224187, 0.241022, -0.081301, 0.320027, -0.043203, -0.075454, -0.042437, 0.249696, -0.051112, -0.012174, 0.051197, 0.014558, 0.252227, 0.124733, 0.16228, 0.177537, -0.170422, -0.11297, -0.016935, 0.104966, 0.319473, 0.066222, -0.001274, 0.218548, -0.103859, -0.05245, 0.04569, -0.037932, -0.006866, 0.069651, -0.019837, 0.070658, 0.077783, -0.09376, -0.065999, 0.053318, -0.019591, -0.1896], [0.046072, 0.207425, 0.098608, -0.051197, -0.046899, 0.07756, -0.050744, 0.156442, 0.099995, -0.10779, -0.283789, 0.08989, -0.013315, 0.083702, 0.173763, -0.158433, 0.139997, -0.02422, -0.013761, -0.201242, 0.11345, -0.034409, -0.161085, 0.152981, -0.182011, 0.043895, -0.086465, -0.110752, 0.174821, -0.074827, -0.197354, -0.273619, -0.168751, 0.044102, 0.063654, 0.251966, -0.11967, 0.025381, 0.094032, -0.177031, 0.0579, 0.027014, 0.175384, 0.150247, -0.112145, -0.070724, 0.014002, 0.000341, 0.164188, -0.2283, -0.166811, -0.112017, -0.042182, 0.157658, -0.208183, 0.001973, 0.001796, 0.308826, 0.068084, 0.022628, -0.157542, -0.088927, -0.04614, 0.008327], [0.071441, 0.063715, 0.075896, 0.031631, 0.190913, 0.093943, -0.057854, -0.126493, -0.08163, 0.143666, 0.213453, 0.238545, 0.107145, -0.017817, -0.182045, 0.135322, 0.185756, -0.000676, -0.136315, 0.128145, 0.007128, 0.002302, 0.031667, -0.072295, -0.066771, 0.090315, 0.010353, -0.064532, 0.139389, -0.016423, 0.106803, -0.113548, -0.014331, 0.198495, 0.157025, 0.124318, 0.032555, 0.1127, 0.165935, -0.00289, -0.06854, -0.077334, 0.248205, -0.104863, 0.117673, -0.038034, 0.047117, 0.15239, -0.044386, 0.084354, 0.006065, -0.08661, -0.061111, 0.159859, 0.057004, -0.03386, -0.210718, 0.321369, -0.150196, 0.14554, 0.053507, 0.277705, -0.044506, -0.089409], [-0.205251, -0.22703, -0.053704, 0.051182, -0.02809, -0.201813, 0.10625, -0.132092, -0.145774, -0.085742, 0.075223, -0.096855, 0.263163, 0.118477, 0.185714, 0.197758, 0.111673, 0.132126, -0.054783, 0.188462, -0.120343, 0.01845, -0.030863, -0.162092, 0.076, 0.079169, 0.093929, 0.098862, 0.051968, 0.142811, -0.17826, -0.023178, 0.13853, -0.033241, -0.047661, 0.058196, 0.076704, 0.216063, -0.010901, 0.032273, -0.19253, 0.136555, -0.163623, 0.158707, 0.027162, 0.153315, 0.070123, -0.009224, 0.175021, -0.036368, 0.036974, -0.111877, -0.021326, -0.115177, -0.043799, 0.005871, -0.022563, 0.1821, 0.049229, -0.09717, -0.036189, -0.096474, 0.117752, 0.071908], [-0.158523, 0.06915, -0.031714, 0.063665, -0.065947, 0.072179, 0.129991, -0.015969, 0.080748, -0.057548, 0.011207, -0.177512, -0.132636, 0.040417, -0.167335, -0.164934, -0.028235, -0.097981, 0.130088, -0.216602, 0.148387, 0.101926, 0.091723, -0.092981, 0.10462, -0.121237, 0.026416, -0.136317, -0.150187, 0.044577, 0.039061, 0.171898, -0.12933, 0.049134, -0.011305, 0.009314, -0.022737, 0.147127, -0.061529, -0.129121, -0.001589, -0.165355, -0.025561, -0.102441, 0.187904, 0.050869, 0.147173, -0.122386, -0.135182, -0.127672, 0.150998, 0.145253, -0.076843, -0.10199, 0.18903, 0.029816, 0.119416, -0.27508, 0.096863, 0.182198, -0.058523, -0.10618, -0.083867, 0.101029], [0.109539, 0.049891, 0.002294, -0.039414, 0.012938, 0.000506, 0.053099, -0.033575, -0.187413, 0.10879, 0.238865, 0.184119, 0.257292, -0.147397, -0.252009, 0.064378, 0.171287, 0.022507, 0.054829, -0.085454, 0.037944, 0.198805, -0.029769, 0.091347, 0.067841, 0.142028, 0.056539, 0.150141, -0.307803, 0.019756, 0.07428, -0.083123, -0.011938, 0.022307, 0.124007, 0.190237, 0.028, 0.337675, -0.042473, -0.159356, 0.198549, 0.095926, -0.003351, -0.14459, -0.054636, -0.018752, -0.212426, 0.113788, 0.064568, -0.125839, 0.196347, -0.079882, -0.104335, -0.069668, 0.157722, -0.048546, 0.119472, 0.147445, -0.021055, -0.016755, -0.046322, -0.158777, -0.184472, 0.011893], [0.044633, 0.183275, 0.002425, -0.033548, 0.274846, -0.027, 0.072764, -0.201312, 0.033847, 0.02637, 0.001714, -0.010357, -0.307268, 0.088461, 0.036991, -0.045968, -0.02861, -0.012049, 0.09336, 0.253121, -0.011071, -0.160963, -0.019544, 0.003874, 0.079577, 0.057241, 0.081689, 0.130472, 0.02685, -0.091019, 0.138212, -0.094302, 0.072406, 0.173628, 0.042926, 0.153639, 0.154833, -0.064425, -0.013175, -0.040076, 0.025357, -0.026457, -0.081388, -0.075963, 0.04194, -0.047803, -0.116587, -0.136309, -0.148871, 0.045858, -0.174052, -0.14878, 0.0795, 0.164491, -0.071651, -0.036985, 0.206971, 0.181111, -0.129588, -0.114751, -0.0069, -0.066611, -0.114524, -0.128348], [-0.024072, 0.037954, -0.036926, 0.026749, 0.130796, 0.081715, 0.025765, 0.001261, -0.045745, -0.210581, -0.026154, 0.190395, 0.039859, 0.063356, 0.14437, -0.103353, -0.1356, -0.150752, 0.139674, -0.149787, -0.032639, -0.010638, -0.080908, 0.213159, -0.16816, 0.016442, -0.017108, 0.105938, 0.103429, 0.149618, 0.134075, 0.007884, 0.112774, 0.043256, 0.057745, 0.044669, -0.1671, 0.053313, 0.007684, -0.027957, -0.021656, -0.266204, -0.184759, 0.023533, -0.140911, -0.212975, -0.063482, -0.117132, -0.101584, -0.00777, 0.098116, 0.173958, 0.05503, 0.019562, -0.100526, 0.008994, 0.0029, -0.067398, -0.123143, -0.010532, 0.027259, 0.100244, 0.095634, -0.116497], [-0.034478, 0.197955, -0.065952, 0.040835, 0.008924, 0.037938, 0.188702, -0.10396, -0.125831, 0.149792, 0.097322, 0.042871, -0.211241, 0.078136, -0.044179, 0.207674, 0.004964, 0.090181, 0.053835, 0.071281, -0.106438, 0.08067, 0.172756, 0.005969, 0.035168, -0.02434, 0.08861, 0.174793, 0.045991, 0.275749, -0.025999, 0.006534, 0.0857, 0.097915, 0.180099, 0.114858, -0.016243, -0.039438, 0.075247, 0.037042, -0.113182, 0.112802, -0.167999, -0.150093, 0.124449, 0.002088, -0.221056, -0.04939, 0.015963, -0.069915, -0.045927, 0.016651, 0.095687, 0.018782, 0.052897, -0.118791, 0.076717, 0.008745, -0.023136, 0.039819, -0.044227, 0.098501, 0.065704, 0.158503], [0.090538, 0.010286, -0.056907, -0.006069, 0.140378, -0.137839, -0.10348, 0.168052, 0.103732, 0.060669, -0.015675, 0.027998, -0.074586, -0.185348, 0.035147, -0.014399, 0.23302, -0.101105, 0.021037, -0.097417, 0.05294, 0.057459, 0.181291, 0.194593, 0.132728, 0.166606, -0.057572, -0.088631, -0.039651, 0.057758, -0.179888, 0.002814, -0.192707, 0.163158, -0.060773, 0.129437, 0.087394, -0.174402, 0.178782, -0.103254, 0.02545, -0.205688, -0.003056, -0.168493, 0.074664, 0.107911, -0.239458, 0.008465, -0.001859, 0.097018, -0.028838, -0.023753, -0.054356, -0.015636, 0.013864, 0.11985, -0.248299, 0.047026, -0.030111, -0.082761, 0.108106, 0.226467, -0.177846, 0.032454], [-0.038868, -0.042539, -0.03789, -0.047987, 0.028977, -0.072703, 0.067907, 0.050563, -0.185805, -8.5e-05, 0.026273, 0.029399, -0.112492, 0.072277, 0.039636, 0.117733, -0.016054, -0.153113, 0.127747, -0.001086, -0.057308, -0.073451, -0.142513, -0.014438, 0.127951, 0.16065, 0.177135, -0.130359, 0.1377, -0.001417, -0.347702, -0.151346, 0.261815, 0.028809, 0.033224, -0.078997, 0.132386, 0.132603, 0.085165, -0.049666, -0.016428, 0.032839, -0.068049, -0.169479, 0.350759, 0.142448, -0.018853, 0.02136, 0.224271, 0.064515, 0.161869, 0.027158, 0.07469, -0.237344, -0.044962, -0.11809, -0.031427, 0.038023, -0.120323, -0.013986, 0.00748, -0.229629, 0.156946, 0.144131], [0.121787, 0.001246, -0.117725, 0.002885, -0.104383, 0.152292, -0.083713, -0.082412, -0.172592, -0.128626, -0.068406, 0.307218, 0.175221, 0.202626, -0.067529, 0.004623, 0.081085, 0.250554, 0.094066, 0.060447, 0.091073, 0.079287, -0.050083, 0.022323, -0.152688, 0.041513, -0.139516, -0.007086, 0.070228, -0.018236, 0.114605, -0.182233, 0.051636, 0.03922, 0.001409, -0.176596, -0.080237, -0.016226, -0.003185, -0.201223, -0.158824, 0.26681, 0.140517, -0.015839, 0.156704, 0.105441, 0.012567, -0.14067, 0.009007, -0.058658, 0.15607, 0.004696, -0.106173, -0.085975, 0.109306, -0.169537, -0.083434, 0.199387, 0.068151, 0.022532, 0.080831, -0.104671, -0.214479, 0.197183], [-0.003905, -0.00072, 0.107849, 0.093358, -0.13817, 0.043281, 0.012035, -0.108726, -0.029375, -0.087256, 0.010291, -0.25005, 0.141115, 0.064366, 0.060738, -0.075355, -0.22352, 0.191211, -0.056276, 0.276113, -0.00688, -0.211158, 0.088773, -0.042939, -0.038077, 0.016496, 0.108709, -0.003332, -0.056349, 0.210228, 0.022829, -0.098879, -0.009877, -0.015151, 0.070076, -0.264402, 0.128048, 0.128129, 0.064027, 0.061744, -0.160657, -0.046524, 0.058096, 0.043562, -0.116246, -0.248713, 0.09748, -0.09423, -0.080535, 0.009472, -0.012967, 0.032188, -0.034756, -0.125975, 0.080929, -0.128156, -0.177376, -0.015762, 0.061264, -0.263688, 0.067824, -0.168597, -0.044451, -0.103371], [-0.225902, 0.177883, -0.076733, -0.040614, 0.141931, 0.013515, 0.135851, 0.095936, -0.247507, -0.129058, 0.073469, 0.064553, -0.061468, 0.148944, -0.01889, -0.142703, 0.25186, 0.102795, 0.005097, -0.034097, 0.318035, 0.15843, 0.070186, -0.004927, -0.175196, 0.102077, 0.006501, -0.121091, -0.023662, 0.145981, -0.295698, -0.020442, -0.04358, -0.002064, 0.051813, 0.230973, -0.215439, -0.179252, -0.174375, -0.084604, 0.122178, -0.042096, -0.076261, -0.027297, 0.047178, -0.091482, 0.080268, 0.114916, -0.051943, -0.198522, -0.17308, 0.161817, 0.090246, -0.22374, 0.130478, 0.025235, 0.073824, 0.002779, 0.139235, -0.193447, -0.059978, -0.14011, 0.001478, 0.128675], [0.254792, 0.101393, -0.08662, 0.162266, -0.154163, 0.106957, -0.068753, 0.149878, 0.061542, -0.242529, 0.057613, 0.163386, -0.029582, -0.017466, -0.084921, 0.025426, -0.033652, 0.157476, 0.198493, 0.203181, -0.206426, 0.015014, 0.130855, 0.169602, 0.030065, -0.103859, 0.077554, -0.083661, -0.136377, 0.020205, -0.115529, -0.163004, 0.17049, -0.115387, -0.052406, 0.053836, 0.034103, -0.031859, 0.075593, 0.031125, 0.100405, 0.087028, -0.000196, -0.048748, -0.102119, -0.133283, -0.084914, 0.157462, -0.31084, -0.038162, 0.107534, -0.10106, -0.004943, -0.170209, 0.112053, 0.016319, -0.203704, -0.036777, 0.09936, -0.178647, -0.075369, -0.210524, 0.031576, -0.054744], [0.254136, -0.096642, -0.059353, 0.009958, 0.021478, -0.070972, -0.115975, -0.226635, 0.151722, 0.034433, -0.014839, -0.200918, 0.263072, -0.118216, -0.078619, 0.067307, 0.084677, -0.056145, -0.178065, -0.077398, -0.055705, -0.134982, 0.04264, -0.218539, -0.097695, 0.067672, 0.207002, 0.079655, -0.089012, 0.030712, -0.223407, -0.077555, 0.196279, 0.016116, 0.040922, 0.153384, -0.156118, 0.207714, 0.125633, 0.049009, -0.126479, 0.278627, 0.258991, -0.076889, 0.002759, 0.016182, -0.03268, -0.078218, -0.122861, -0.281827, 0.076147, -0.019002, 0.172717, -0.079719, -0.026465, 0.040657, -0.051565, -0.166493, -0.118335, 0.025873, -0.115611, 0.024994, 0.157044, 0.06905], [-0.167728, 0.02188, 0.177575, 0.144594, 0.067772, -0.2057, 0.303645, 0.204424, 0.055512, 0.060192, -0.004698, -0.177034, -0.1254, -0.117839, 0.03124, 0.100213, -0.015034, -0.128051, 0.142479, 0.041555, 0.088082, -0.243318, -0.188175, 0.189202, 0.054259, -0.099538, 0.036309, -0.121612, -0.021513, 0.140065, -0.153824, 0.113254, -0.032376, 0.227199, -0.110797, -0.000797, 0.353179, 0.108703, 0.225102, -0.044154, -0.241805, 0.01294, 0.312474, -0.084465, 0.105028, -0.019885, -0.165776, -0.078367, -0.163353, -0.191391, 0.095925, 0.062864, 0.091759, -0.041918, 0.09545, 0.08872, -0.020213, 0.151048, 0.117858, -0.029972, -0.030678, 0.16243, -0.23938, 0.14978], [0.148209, -0.167013, 0.032462, -0.033087, 0.075526, 0.129005, -0.025732, -0.00287, -0.002985, -0.039403, -0.066299, -0.24265, 0.148632, 0.073619, -0.019538, 0.12554, 0.233577, -0.011673, 0.145479, -0.034025, -0.067562, -0.20874, 0.083933, 0.208534, 0.063262, 0.11755, 0.128138, 0.160577, 0.132881, 0.171533, 0.071306, -0.053028, 0.017273, 0.164445, -0.10805, -0.038533, -0.231727, -0.083992, 0.188156, 0.093898, -0.189934, 0.121347, 0.093212, 0.005369, -0.046683, 0.272113, -0.065414, 0.042219, -0.138133, 0.261187, 0.114439, -0.097268, 0.270536, -0.156509, 0.029806, -0.13611, -0.019507, 0.101121, -0.218179, 0.068299, -0.122576, 0.032372, 0.41904, 0.007678], [-0.131818, 0.187096, -0.199788, -0.0166, -0.02482, 0.227803, -0.250126, 0.03855, -0.105962, -0.185823, -0.063595, 0.150162, 0.089861, -0.126519, 0.093461, 0.109629, -0.15171, 0.093631, 0.176155, 0.112889, 0.183307, -0.010275, -0.285374, 0.169105, -0.145025, 0.122156, -0.051884, -0.028639, 0.020498, 0.266094, -0.072614, 0.024352, 0.037792, -0.113124, 0.138798, -0.029696, -0.099847, 0.140648, 0.021784, 0.008012, -0.051323, 0.169726, 0.211694, -0.205226, -0.026889, 0.011772, -0.076758, 0.016826, 0.117428, -0.013924, 0.008237, -0.01652, -0.089766, -0.080726, -0.012657, 0.220432, 0.231644, 0.028622, 0.086902, -0.017769, 0.050215, 0.19284, 0.033835, 0.006926], [0.105233, 0.209897, 0.087021, -0.082586, -0.054405, 0.010469, 0.019791, -0.13969, -0.059748, 0.026692, -0.037505, -0.072334, 0.033917, 0.15124, 0.034096, 0.150285, -0.039444, 0.114281, -0.1259, 0.290181, 0.119448, -0.114395, -0.086191, -0.212033, -0.007077, -0.036809, -0.158245, 0.123564, -0.017243, 0.078153, 0.090652, -0.133502, 0.10767, 0.119986, 0.173855, -0.103359, -0.09595, -0.25945, -0.01279, -0.129949, -0.032835, 0.106003, -0.087511, -0.056162, -0.0533, 0.174366, 0.146085, 0.016431, 0.052103, -0.183674, -0.107441, 0.212711, -0.000394, 0.032357, -0.027611, 0.155713, 0.011281, -0.001259, -0.1341, 0.128303, -0.006586, -0.036969, -0.124104, -0.097417], [-0.260483, 0.083399, 0.014624, -0.072576, -0.026922, 0.028067, 0.067777, 0.103491, -0.050915, -0.238642, -0.159251, 0.094021, 0.040351, -0.211834, -0.017669, -0.30407, -0.035696, -0.015048, 0.022528, -0.049723, -0.107667, -0.132636, 0.044621, -0.063676, -0.194338, 0.071458, -0.095153, -0.021371, 0.044133, -0.194587, -0.047052, -0.016022, 0.231995, 0.280792, -0.025681, -0.034797, 0.125685, -0.123357, 0.1855, -0.139763, 0.079419, 0.180288, 0.052641, 0.060408, 0.03369, 0.008722, 0.160877, -0.027544, 0.005866, -0.006101, -0.200683, -0.03689, -0.090108, -0.0156, -0.262236, 0.008159, 0.142757, -0.11431, -0.068371, 0.050618, -0.072674, -0.13784, -0.058375, 0.077874], [-0.101423, -0.091046, -0.015899, 0.148827, 0.114767, 0.065202, 0.089029, 0.182825, -0.001657, 0.156468, 0.185302, -0.030292, -0.003394, 0.2409, -0.058907, 0.029433, -0.096128, -0.049568, -0.074786, 0.014029, 0.044811, -0.010315, 0.164581, -0.212293, -0.095018, 0.093461, -0.057355, 0.196413, -0.160417, -0.10915, -0.065807, -0.057104, 0.068356, 0.005115, 0.015626, -0.226125, -0.033139, 0.075985, -0.086571, -0.109147, -0.042567, 0.121398, 0.244088, -0.219233, -0.16088, 0.280813, 0.09926, -0.069416, 0.090179, -0.09458, 0.264959, 0.057195, 0.167326, -0.005625, 0.146058, -0.137991, 0.081189, 0.03658, 0.204424, -0.021744, -0.098337, -0.002865, -0.007858, -0.063325], [0.031894, -0.019744, -0.043903, 0.168982, 0.107406, 0.034676, -0.222489, 0.036957, -0.00522, 0.026985, 0.129595, -0.1083, 0.096732, -0.026766, 0.068795, 0.147433, -0.096689, 0.29766, 0.227825, 0.119125, -0.000951, -0.047543, 0.10557, -0.117126, 0.086642, -0.074413, -0.013834, -0.033203, 0.001718, 0.059061, -0.079467, 0.124912, -0.044544, -0.023639, -0.067178, 0.088556, 0.069684, -0.08372, -0.122429, -0.054941, -0.103242, 0.015002, 0.083741, -0.165391, -0.107292, 0.23876, 0.088824, 0.156961, 0.00816, 0.012904, -0.077211, -0.134362, -0.018807, 0.072303, 0.193673, 0.033448, 0.080775, -0.119661, 0.063065, -0.034915, -0.03635, 0.097638, 0.20532, 0.158176], [0.021978, -0.162187, 0.252942, 0.075411, -0.033638, 0.156456, -0.410328, -0.218871, -0.15614, -0.139761, -0.00905, 0.260331, -0.083117, 0.152014, -0.173046, 0.25272, -0.13858, 0.032834, -0.222925, 0.119739, -0.11082, 0.051507, -0.174659, -0.161559, -0.268063, 0.034031, 0.035112, -0.141074, 0.007634, -0.09075, -0.130399, 0.11532, -0.088989, -0.067955, -0.237405, 0.006025, 0.110735, -0.111076, -0.391829, 0.104387, 0.048077, 0.105863, -0.097084, -0.135282, -0.169199, 0.019703, 0.116757, 0.108874, 0.057089, -0.002139, -0.141317, 0.151635, 0.043134, 0.006821, -0.179724, -0.208664, -0.306135, -0.082821, -0.011203, 0.082606, -0.094835, 0.008168, 0.065593, -0.023251], [0.104864, 0.118392, 0.126267, -0.102244, -0.244225, 0.125514, -0.002884, 0.153341, 0.233914, 0.071783, -0.052967, -0.120983, 0.117071, -0.036039, 0.198289, 0.22489, 0.056847, 0.019248, 0.188904, -0.123301, -0.069486, 0.049651, -0.136107, 0.216537, -0.061347, 0.048512, -0.092943, 0.029211, -0.003985, 0.053673, 0.044856, 0.100757, 0.142173, -0.042474, -0.00922, -0.112975, 0.058127, 0.182642, -0.124054, 0.057299, -0.110837, 0.230536, 0.003177, -0.025824, 0.054552, 0.041264, 0.224824, -0.071573, -0.321706, -0.056846, -0.14155, -0.053914, -0.147414, 0.003725, 0.065496, 0.129469, -0.111553, 0.146565, 0.211152, 0.072549, -0.058399, -0.127888, 0.052349, 0.073412], [-0.154957, -0.128625, 0.054967, -0.004258, 0.346801, 0.07082, 0.151377, -0.119806, 0.233733, 0.176577, -0.069801, 0.18615, 0.287779, 0.066141, 0.032543, 0.19968, 0.139531, -0.051092, 0.105084, -0.030127, 0.106949, -0.247185, 0.342657, -0.057617, -0.078314, 0.053282, -0.067302, 0.171896, 0.097944, 0.225665, -0.028643, -0.042035, -0.08329, 0.153599, -0.273661, -0.211769, 0.075415, -0.201277, -0.074571, -0.089765, -0.132683, 0.045314, -0.26401, 0.027087, -0.183075, 0.08502, -0.048794, 0.15147, 0.000168, 0.045096, 0.011901, 0.191694, 0.073035, -0.004692, -0.054014, 0.105627, -0.157749, -0.042606, -0.121816, 0.06118, 0.058379, 0.081085, -0.04002, 0.061995]], "biases": [-0.00738, 0.166252, -0.10924, -0.091268, 0.040263, -0.109293, 0.063031, 0.06397, 0.125733, 0.060405, -0.0562, -0.065259, 0.104567, 0.013906, 0.199497, 0.139169, -0.148868, -0.087453, -0.029572, -0.23481, -0.149229, -0.022567, -0.014248, 0.264987, 0.158108, 0.024619, 0.072983, -0.016869, -0.012675, 0.003972, 0.172494, -0.110311], "activation": "sigmoid"}, {"weights": [[-0.093055, 0.078482, -0.055957, -0.091893, 0.020965, 0.095324, 0.306651, -0.098963, -0.144096, 0.140248, -0.162114, -0.178268, -0.193275, -0.102138, -0.172392, -0.403408, 0.138782, 0.104551, 0.111712, 0.437623, -0.046627, -0.111411, -0.081151, 0.16167, -0.043138, 0.133022, 0.237668, 0.098798, 0.176743, 0.130822, 0.018492, 0.296816], [-0.001308, -0.058661, 0.113553, 0.019031, -0.046158, -0.017772, 0.307911, 0.125562, -0.275292, 0.004022, 0.006284, 0.256292, 0.080602, 0.124055, 0.151554, 0.177299, 0.247847, 0.022949, 0.052916, 0.541923, -0.293396, -0.106395, -0.102637, -0.216166, 0.089777, -0.060355, 0.134927, -0.174668, -0.123524, 0.149933, -0.141703, 0.116043], [-0.042071, 0.085962, -0.045354, 0.07769, -0.09225, 0.003124, 0.126631, -0.089348, -0.152014, 0.274572, 0.043581, 0.216951, -0.05728, 0.242114, -0.143707, 0.107977, 0.09399, -0.253956, 0.149504, -0.062555, -0.22196, 0.106955, 0.291255, 0.133623, 0.275819, 0.31141, -0.234147, 0.075348, 0.130833, -0.113159, 0.095102, 0.086709], [-0.276556, 0.141328, 0.267876, 0.150084, -0.04465, -0.022806, -0.175188, -0.370211, 0.047631, -0.085623, -0.09643, 0.092806, -0.088438, 0.006872, -0.081946, -0.264529, -0.089833, 0.020051, 0.05443, -0.162228, -0.195492, 0.433096, 0.005947, -0.000541, -0.165487, 0.104299, -0.122137, -0.00759, 0.076315, -0.081534, 0.053103, 0.024841], [0.221976, -0.048662, -0.106376, 0.026278, -0.01678, -0.192589, -0.019848, 0.128708, 0.034517, 0.000467, 0.066774, 0.178278, -0.09546, 0.050769, -0.029227, -0.19908, -0.027813, -0.033967, 0.056476, -0.104033, -0.022467, 0.037175, 0.365925, -0.014126, -0.100085, -0.116594, 0.094332, 0.064612, 0.385216, -0.169422, -0.120796, 0.184554], [0.09906, 0.135219, 0.17882, -0.034039, -0.012962, -0.108199, -0.18141, 0.10554, 0.064213, 0.054652, -0.077074, 0.077178, 0.005896, 0.133582, -0.2966, -0.192748, 0.004673, 0.142899, 0.074661, 0.007916, 0.001732, 0.024282, -0.105289, 0.03669, 0.085201, -0.095657, -0.142706, -0.031084, -0.176535, 0.203785, -0.35031, 0.126721], [-0.112068, -0.0534, 0.215983, -0.37029, 0.435924, -0.17791, -0.189506, -0.012975, -0.049689, 0.248027, 0.052045, -0.191645, 0.092515, 0.092124, 0.378161, 0.188212, 0.381447, 0.144051, 0.063589, -0.001149, 0.262951, -0.001304, -0.104607, 0.147466, -0.145299, 0.074119, 0.138291, 0.190374, 0.224797, 0.125986, -0.085036, -0.122839], [-0.080283, -0.024525, 0.174254, 0.134777, 0.034209, 0.404029, -0.046049, 0.136435, 0.110862, -0.03046, 0.087211, -0.139905, -0.164995, -0.071903, -0.221529, -0.00813, 0.185507, -0.071753, -0.400275, -0.21665, -0.110218, -0.358922, -0.066163, -0.080806, -0.107135, 0.155581, 0.09756, -0.014652, -0.106988, -0.132129, -0.06379, 0.194084]], "biases": [-0.015401, 0.09629, 0.179715, -0.119579, -0.035689, 0.191364, -0.054548, 0.108972], "activation": "tanh"}]}